{"learner":{"attributes":{"scikit_learn":"{\"_estimator_type\": \"ranker\"}"},"feature_names":[],"feature_types":[],"gradient_booster":{"model":{"cats":{"enc":[],"feature_segments":[],"sorted_idx":[]},"gbtree_model_param":{"num_parallel_tree":"1","num_trees":"100"},"iteration_indptr":[0,1,2,3,4,5,6,7,8,9,10,11,12,13,14,15,16,17,18,19,20,21,22,23,24,25,26,27,28,29,30,31,32,33,34,35,36,37,38,39,40,41,42,43,44,45,46,47,48,49,50,51,52,53,54,55,56,57,58,59,60,61,62,63,64,65,66,67,68,69,70,71,72,73,74,75,76,77,78,79,80,81,82,83,84,85,86,87,88,89,90,91,92,93,94,95,96,97,98,99,100],"tree_info":[0,0,0,0,0,0,0,0,0,0,0,0,0,0,0,0,0,0,0,0,0,0,0,0,0,0,0,0,0,0,0,0,0,0,0,0,0,0,0,0,0,0,0,0,0,0,0,0,0,0,0,0,0,0,0,0,0,0,0,0,0,0,0,0,0,0,0,0,0,0,0,0,0,0,0,0,0,0,0,0,0,0,0,0,0,0,0,0,0,0,0,0,0,0,0,0,0,0,0,0],"trees":[{"base_weights":[1.5780769E-8,-2.8736413E-1,3.1920326E-1,-3.2848457E-1,-2.8732693E-2,2.6071018E-1,5.8516797E-2,-5.0606806E-2,-2.973643E-1,7.173463E-2,-1.3032125E-1,4.6615034E-2,2.3673564E-1,-1.8732944E-1,-3.1484804E-1,3.5548795E-3,1.4365506E-2,-2.1876488E-2,-7.974965E-3,1.6331698E-1,2.8103927E-1,-2.3553291E-1,1.1295057E-2,-3.507502E-2,-2.962112E-1,1.9504369E-3,-3.0323458E-3,2.6772904E-1,-1.0725324E-2,4.8170424E-1,2.4058583E-1,-3.0702708E-2,-1.448374E-2,4.207566E-4,-3.242377E-2,1.650807E-2,2.9840505E-2,-2.186497E-2,1.4916959E-2,5.5641796E-2,3.6035426E-2,1.7373435E-2,2.5755733E-2],"categories":[],"categories_nodes":[],"categories_segments":[],"categories_sizes":[],"default_left":[0,0,0,0,0,0,0,0,0,0,0,0,0,0,0,0,0,0,0,0,0,0,0,0,0,0,0,0,0,0,0,0,0,0,0,0,0,0,0,0,0,0,0],"id":0,"left_children":[1,3,5,7,9,11,-1,-1,13,15,17,-1,19,21,23,25,-1,-1,-1,27,29,31,-1,-1,33,-1,-1,35,37,39,41,-1,-1,-1,-1,-1,-1,-1,-1,-1,-1,-1,-1],"loss_changes":[6.1588196E1,3.7482853E0,4.796009E0,1.5337944E0,5.1524377E-1,1.182787E0,0E0,0E0,4.4457626E-1,1.2485221E-1,9.437594E-2,0E0,7.254629E-1,5.817975E-1,4.6243668E-2,8.2370825E-3,0E0,0E0,0E0,1.6680565E0,1.0734148E0,1.71942E-1,0E0,0E0,1.2992086E0,0E0,0E0,1.3120747E-1,1.2069169E0,1.3305664E-2,9.585762E-2,0E0,0E0,0E0,0E0,0E0,0E0,0E0,0E0,0E0,0E0,0E0,0E0],"parents":[2147483647,0,0,1,1,2,2,3,3,4,4,5,5,8,8,9,9,10,10,12,12,13,13,14,14,15,15,19,19,20,20,21,21,24,24,27,27,28,28,29,29,30,30],"right_children":[2,4,6,8,10,12,-1,-1,14,16,18,-1,20,22,24,26,-1,-1,-1,28,30,32,-1,-1,34,-1,-1,36,38,40,42,-1,-1,-1,-1,-1,-1,-1,-1,-1,-1,-1,-1],"split_conditions":[1E0,1E0,5E-1,9E0,2.2E1,3E0,5.8516797E-2,-5.0606806E-2,1.4E1,1.5E1,2.9E1,4.6615034E-2,2.1E1,1.3E1,1.6E1,8E0,1.4365506E-2,-2.1876488E-2,-7.974965E-3,1.1E1,2.4E1,1.1E1,1.1295057E-2,-3.507502E-2,2E1,1.9504369E-3,-3.0323458E-3,5E0,1.4E1,2.3E1,2.8E1,-3.0702708E-2,-1.448374E-2,4.207566E-4,-3.242377E-2,1.650807E-2,2.9840505E-2,-2.186497E-2,1.4916959E-2,5.5641796E-2,3.6035426E-2,1.7373435E-2,2.5755733E-2],"split_indices":[2,0,0,4,4,4,0,0,4,4,4,0,4,4,4,4,0,0,0,4,4,4,0,0,4,0,0,4,4,4,4,0,0,0,0,0,0,0,0,0,0,0,0],"split_type":[0,0,0,0,0,0,0,0,0,0,0,0,0,0,0,0,0,0,0,0,0,0,0,0,0,0,0,0,0,0,0,0,0,0,0,0,0,0,0,0,0,0,0],"sum_hessian":[6.694252E2,3.5233435E2,3.1709082E2,3.0376755E2,4.8566807E1,2.615491E2,5.554172E1,4.301973E1,2.607478E2,2.4565907E1,2.40009E1,2.540527E1,2.3614384E2,3.7356594E1,2.2339122E2,1.3149633E1,1.1416273E1,7.5212684E0,1.6479633E1,9.063406E1,1.4550977E2,3.2375095E1,4.9815E0,7.024671E1,1.531445E2,9.229013E0,3.9206197E0,5.6312546E1,3.432152E1,2.2582767E1,1.22927E2,1.6770144E1,1.5604951E1,1.3140436E1,1.4000407E2,1.4424976E1,4.188757E1,1.4760189E1,1.956133E1,1.1758172E1,1.0824595E1,2.7163937E1,9.576307E1],"tree_param":{"num_deleted":"0","num_feature":"7","num_nodes":"43","size_leaf_vector":"1"}},{"base_weights":[4.211431E-9,-2.1487549E-1,1.7537875E-1,-2.5038826E-1,-1.6394252E-2,1.2386642E-1,4.3618095E-1,-2.3531176E-1,-5.0698753E-2,2.9748218E-2,-7.181522E-2,2.592196E-1,1.057499E-1,5.5517145E-2,3.860768E-2,-2.1432476E-1,-2.9952535E-2,6.1927484E-3,1.1972394E-2,-1.6060816E-2,-3.0923223E-3,3.3307098E-2,2.2037013E-2,3.848186E-2,1.4282481E-1,-3.300215E-1,-2.0096655E-1,2.5792622E-3,7.419012E-4,8.614802E-2,-2.8375366E-1,3.922316E-2,1.2171734E-1,-2.1804288E-2,-4.320969E-2,-1.3784559E-2,-2.4207735E-2,3.452583E-3,4.7436077E-2,-4.639494E-2,-1.5239728E-2,2.2347039E-2,1.1282369E-2],"categories":[],"categories_nodes":[],"categories_segments":[],"categories_sizes":[],"default_left":[0,0,0,0,0,0,0,0,0,0,0,0,0,0,0,0,0,0,0,0,0,0,0,0,0,0,0,0,0,0,0,0,0,0,0,0,0,0,0,0,0,0,0],"id":1,"left_children":[1,3,5,7,9,11,13,15,-1,17,19,21,23,-1,-1,25,-1,-1,27,-1,-1,-1,-1,29,31,33,35,-1,-1,37,39,-1,41,-1,-1,-1,-1,-1,-1,-1,-1,-1,-1],"loss_changes":[7.624041E1,6.4043694E0,1.4911186E1,2.8638992E0,3.5773528E-1,2.256999E0,8.786812E-1,9.19857E-1,0E0,4.3066874E-2,2.2548229E-1,2.4014378E-1,2.0478306E0,0E0,0E0,7.896519E-1,0E0,0E0,2.991187E-3,0E0,0E0,0E0,0E0,4.5388117E0,2.7445269E0,5.432558E-1,1.2617149E0,0E0,0E0,5.1300497E0,8.312719E-1,0E0,4.1864538E-1,0E0,0E0,0E0,0E0,0E0,0E0,0E0,0E0,0E0,0E0],"parents":[2147483647,0,0,1,1,2,2,3,3,4,4,5,5,6,6,7,7,9,9,10,10,11,11,12,12,15,15,18,18,23,23,24,24,25,25,26,26,29,29,30,30,32,32],"right_children":[2,4,6,8,10,12,14,16,-1,18,20,22,24,-1,-1,26,-1,-1,28,-1,-1,-1,-1,30,32,34,36,-1,-1,38,40,-1,42,-1,-1,-1,-1,-1,-1,-1,-1,-1,-1],"split_conditions":[1E0,1E0,5E-1,7.1653134E-1,2.2E1,4E0,1.5E1,5E-1,-5.0698753E-2,8E0,2.9E1,2E0,2.1E1,5.5517145E-2,3.860768E-2,9E0,-2.9952535E-2,6.1927484E-3,1.5E1,-1.6060816E-2,-3.0923223E-3,3.3307098E-2,2.2037013E-2,1.9E1,2.3E1,6E0,2.4E1,2.5792622E-3,7.419012E-4,1.6E1,2E1,3.922316E-2,2.4E1,-2.1804288E-2,-4.320969E-2,-1.3784559E-2,-2.4207735E-2,3.452583E-3,4.7436077E-2,-4.639494E-2,-1.5239728E-2,2.2347039E-2,1.1282369E-2],"split_indices":[2,0,0,6,4,4,4,0,0,4,4,4,4,0,0,4,0,0,4,0,0,0,0,4,4,4,4,0,0,4,4,0,4,0,0,0,0,0,0,0,0,0,0],"split_type":[0,0,0,0,0,0,0,0,0,0,0,0,0,0,0,0,0,0,0,0,0,0,0,0,0,0,0,0,0,0,0,0,0,0,0,0,0,0,0,0,0,0,0],"sum_hessian":[2.0211187E3,9.081817E2,1.1129369E3,7.701271E2,1.3805463E2,9.3060376E2,1.8233322E2,7.2919995E2,4.092714E1,7.55862E1,6.2468426E1,1.0828325E2,8.223205E2,5.1039974E1,1.3129324E2,5.528492E2,1.7635074E2,2.6012468E1,4.9573727E1,1.8774292E1,4.3694134E1,3.471604E1,7.3567215E1,2.9290927E2,5.294112E2,5.4770493E1,4.980787E2,1.1129489E1,3.844424E1,2.5580272E2,3.710654E1,3.993655E1,4.8947467E2,2.7613766E1,2.7156727E1,1.9816771E2,2.99911E2,2.26741E2,2.9061716E1,1.4577297E1,2.2529243E1,3.740411E1,4.5207056E2],"tree_param":{"num_deleted":"0","num_feature":"7","num_nodes":"43","size_leaf_vector":"1"}},{"base_weights":[2.6353675E-9,-1.8984517E-1,1.526727E-1,-2.2170703E-1,-1.8676767E-2,1.03579655E-1,4.1288874E-1,-3.6387542E-1,-2.028179E-1,1.9707046E-2,-6.6974975E-2,2.40969E-1,8.913138E-2,5.3732403E-2,3.6374173E-1,-3.0428603E-1,-4.468449E-2,-1.8286222E-1,-2.580843E-2,-4.105372E-3,4.611542E-3,-1.5902894E-2,-2.4781409E-3,3.02933E-2,1.9833159E-2,-8.001977E-4,1.02064155E-1,3.2624242E-1,3.9293364E-2,-2.3657645E-1,-3.724248E-2,-1.23777755E-1,-2.2084007E-1,1.91972E-3,-4.508057E-3,1.1113567E-2,-2.7731514E-2,2.2287786E-2,9.10682E-2,4.00074E-2,2.2887526E-2,-2.8643107E-2,-1.5624814E-2,-1.8730877E-2,-1.7721768E-3,-5.6919135E-2,-2.0020662E-2,1.3105519E-3,-4.419183E-3,-3.967152E-3,1.0984788E-2],"categories":[],"categories_nodes":[],"categories_segments":[],"categories_sizes":[],"default_left":[0,0,0,0,0,0,0,0,0,0,0,0,0,0,0,0,0,0,0,0,0,0,0,0,0,0,0,0,0,0,0,0,0,0,0,0,0,0,0,0,0,0,0,0,0,0,0,0,0,0,0],"id":2,"left_children":[1,3,5,7,9,11,13,15,17,19,21,23,25,-1,27,29,-1,31,-1,33,-1,-1,-1,-1,-1,35,37,39,-1,41,-1,43,45,-1,-1,-1,47,-1,49,-1,-1,-1,-1,-1,-1,-1,-1,-1,-1,-1,-1],"loss_changes":[5.4725685E1,4.5857563E0,1.3326286E1,1.8313522E0,2.4819303E-1,1.7288342E0,8.183174E-1,2.6917648E-1,6.4595604E-1,4.7334895E-2,2.2597751E-1,1.6004086E-1,9.298754E-1,0E0,5.279541E-3,1.4638901E-1,0E0,1.016509E0,0E0,3.938472E-2,0E0,0E0,0E0,0E0,0E0,3.090687E-1,9.0820694E-1,3.344531E-1,0E0,6.83198E-2,0E0,1.2384114E0,1.9122477E0,0E0,0E0,0E0,5.6113936E-2,0E0,1.5814023E0,0E0,0E0,0E0,0E0,0E0,0E0,0E0,0E0,0E0,0E0,0E0,0E0],"parents":[2147483647,0,0,1,1,2,2,3,3,4,4,5,5,6,6,7,7,8,8,9,9,10,10,11,11,12,12,14,14,15,15,17,17,19,19,25,25,26,26,27,27,29,29,31,31,32,32,36,36,38,38],"right_children":[2,4,6,8,10,12,14,16,18,20,22,24,26,-1,28,30,-1,32,-1,34,-1,-1,-1,-1,-1,36,38,40,-1,42,-1,44,46,-1,-1,-1,48,-1,50,-1,-1,-1,-1,-1,-1,-1,-1,-1,-1,-1,-1],"split_conditions":[1E0,1E0,5E-1,9E0,2.2E1,3E0,1.5E1,7.1653134E-1,5E-1,1.5E1,2.9E1,2E0,7E0,5.3732403E-2,2.9E1,6E0,-4.468449E-2,2.4E1,-2.580843E-2,8E0,4.611542E-3,-1.5902894E-2,-2.4781409E-3,3.02933E-2,1.9833159E-2,4E0,1E1,2.2E1,3.9293364E-2,2E0,-3.724248E-2,1.9E1,2.5E1,1.91972E-3,-4.508057E-3,1.1113567E-2,5E0,2.2287786E-2,1.6E1,4.00074E-2,2.2887526E-2,-2.8643107E-2,-1.5624814E-2,-1.8730877E-2,-1.7721768E-3,-5.6919135E-2,-2.0020662E-2,1.3105519E-3,-4.419183E-3,-3.967152E-3,1.0984788E-2],"split_indices":[2,0,0,4,4,4,4,6,0,4,4,4,4,0,4,4,0,4,0,4,0,0,0,0,0,4,4,4,0,4,0,4,4,0,0,0,4,0,4,0,0,0,0,0,0,0,0,0,0,0,0],"split_type":[0,0,0,0,0,0,0,0,0,0,0,0,0,0,0,0,0,0,0,0,0,0,0,0,0,0,0,0,0,0,0,0,0,0,0,0,0,0,0,0,0,0,0,0,0,0,0,0,0,0,0],"sum_hessian":[1.8861229E3,8.4060516E2,1.0455178E3,7.084388E2,1.3216643E2,8.8075104E2,1.6476672E2,8.094503E1,6.274937E2,7.397143E1,5.8195004E1,8.2317E1,7.98434E2,4.3838657E1,1.2092806E2,4.9826588E1,3.111844E1,4.641915E2,1.6330223E2,3.9341637E1,3.462979E1,1.7420204E1,4.0774796E1,3.1065441E1,5.1251564E1,1.0050227E2,6.9793176E2,5.8261856E1,6.266621E1,2.7235054E1,2.2591534E1,1.8329199E2,2.808995E2,2.5417952E1,1.3923683E1,1.888462E1,8.161765E1,5.6616043E1,6.4131573E2,3.1367548E1,2.6894308E1,1.522199E1,1.2013063E1,1.1414766E2,6.914433E1,1.4221087E1,2.6667844E2,2.350557E1,5.8112083E1,8.040967E1,5.6090607E2],"tree_param":{"num_deleted":"0","num_feature":"7","num_nodes":"51","size_leaf_vector":"1"}},{"base_weights":[3.5220027E-9,-1.7471993E-1,1.3821925E-1,-2.033301E-1,-2.3220072E-2,9.3918405E-2,3.8105375E-1,-1.93843E-1,-4.1045308E-2,2.0313501E-2,-7.8237064E-2,2.2839133E-1,8.019655E-2,5.1093465E-1,3.3169556E-2,-2.2348963E-1,-1.6703266E-1,2.0538631E-3,3.9444263E-3,-1.6420802E-2,-3.8150374E-3,2.9020622E-2,1.8657956E-2,4.2894915E-2,1.006197E-1,4.2773925E-2,6.2557995E-2,-2.1974945E-1,-5.8700074E-2,1.1385666E-1,-1.9802225E-1,2.0788268E-3,-3.2934067E-3,6.940591E-2,-2.1984069E-1,2.9997393E-1,6.839127E-2,-2.586764E-2,-2.0329801E-2,-1.0338534E-2,2.1945434E-2,-4.24765E-2,-1.901921E-2,4.122968E-3,3.039432E-2,-3.5491157E-2,-1.2651131E-2,3.766839E-2,2.0954309E-2,-6.199434E-4,8.202041E-3],"categories":[],"categories_nodes":[],"categories_segments":[],"categories_sizes":[],"default_left":[0,0,0,0,0,0,0,0,0,0,0,0,0,0,0,0,0,0,0,0,0,0,0,0,0,0,0,0,0,0,0,0,0,0,0,0,0,0,0,0,0,0,0,0,0,0,0,0,0,0,0],"id":3,"left_children":[1,3,5,7,9,11,13,15,-1,17,19,21,23,25,-1,27,29,31,-1,-1,-1,-1,-1,33,35,-1,-1,37,-1,39,41,-1,-1,43,45,47,49,-1,-1,-1,-1,-1,-1,-1,-1,-1,-1,-1,-1,-1,-1],"loss_changes":[4.3703636E1,3.459835E0,1.0833759E1,1.241333E0,3.0839488E-1,1.560874E0,8.277817E-1,4.7507286E-1,0E0,2.5176989E-2,1.8945688E-1,1.4926815E-1,5.8847284E-1,1.233511E-1,0E0,2.8321075E-1,3.0037527E0,2.5625737E-2,0E0,0E0,0E0,0E0,0E0,1.944987E0,3.205287E0,0E0,0E0,1.4061546E-1,0E0,8.1792665E-1,4.6749973E-1,0E0,0E0,1.6555088E0,2.782271E-1,4.0372086E-1,4.412105E-1,0E0,0E0,0E0,0E0,0E0,0E0,0E0,0E0,0E0,0E0,0E0,0E0,0E0,0E0],"parents":[2147483647,0,0,1,1,2,2,3,3,4,4,5,5,6,6,7,7,9,9,10,10,11,11,12,12,13,13,15,15,16,16,17,17,23,23,24,24,27,27,29,29,30,30,33,33,34,34,35,35,36,36],"right_children":[2,4,6,8,10,12,14,16,-1,18,20,22,24,26,-1,28,30,32,-1,-1,-1,-1,-1,34,36,-1,-1,38,-1,40,42,-1,-1,44,46,48,50,-1,-1,-1,-1,-1,-1,-1,-1,-1,-1,-1,-1,-1,-1],"split_conditions":[1E0,1E0,5E-1,7.1653134E-1,2.2E1,3E0,1.5E1,1.6E1,-4.1045308E-2,1.5E1,2.9E1,2E0,2.1E1,8E0,3.3169556E-2,1.5E1,2E1,8E0,3.9444263E-3,-1.6420802E-2,-3.8150374E-3,2.9020622E-2,1.8657956E-2,1.9E1,2.4E1,4.2773925E-2,6.2557995E-2,1.1E1,-5.8700074E-2,1.9E1,2.1E1,2.0788268E-3,-3.2934067E-3,1.6E1,2E1,2.3E1,2.7E1,-2.586764E-2,-2.0329801E-2,-1.0338534E-2,2.1945434E-2,-4.24765E-2,-1.901921E-2,4.122968E-3,3.039432E-2,-3.5491157E-2,-1.2651131E-2,3.766839E-2,2.0954309E-2,-6.199434E-4,8.202041E-3],"split_indices":[2,0,0,6,4,4,4,4,0,4,4,4,4,4,0,4,4,4,0,0,0,0,0,4,4,0,0,4,0,4,4,0,0,4,4,4,4,0,0,0,0,0,0,0,0,0,0,0,0,0,0],"split_type":[0,0,0,0,0,0,0,0,0,0,0,0,0,0,0,0,0,0,0,0,0,0,0,0,0,0,0,0,0,0,0,0,0,0,0,0,0,0,0,0,0,0,0,0,0,0,0,0,0,0,0],"sum_hessian":[1.8077001E3,7.983099E2,1.00939014E3,6.71212E2,1.2709795E2,8.5482855E2,1.5456155E2,6.436653E2,2.7546675E1,7.130604E1,5.5791912E1,7.77029E1,7.771257E2,3.9987377E1,1.1457418E2,3.0218076E2,3.4148453E2,3.7050243E1,3.4255795E1,1.6757347E1,3.9034565E1,2.8954927E1,4.874798E1,2.7604562E2,5.0108008E2,2.5913515E1,1.4073863E1,3.0069144E2,1.4893059E0,3.3665634E1,3.078189E2,2.4394156E1,1.2656087E1,2.5141295E2,2.4632666E1,6.857716E1,4.325029E2,8.495336E1,2.1573808E2,1.101855E1,2.2647083E1,8.497699E0,2.993212E2,2.254984E2,2.5914555E1,8.920171E0,1.5712495E1,3.5390747E1,3.318642E1,6.690184E1,3.6560104E2],"tree_param":{"num_deleted":"0","num_feature":"7","num_nodes":"51","size_leaf_vector":"1"}},{"base_weights":[4.4616804E-9,-1.6435091E-1,1.2893236E-1,-1.924859E-1,-1.5150731E-2,8.693188E-2,3.6340818E-1,-1.8429449E-1,-3.8088437E-2,2.1764487E-2,-6.285872E-2,1.9968396E-1,7.282095E-2,5.004343E-1,3.1347257E-1,-1.6648617E-1,-2.3650752E-2,1.5620672E-3,2.4571957E-3,-1.4898892E-2,-2.2855464E-3,2.6893301E-2,1.6578084E-2,1.7239964E-2,9.424935E-2,4.1184153E-2,6.316353E-2,2.75814E-1,3.4333907E-2,-2.3732206E-1,-1.5145461E-1,6.3713E-2,-2.3807007E-1,5.1347005E-1,8.226777E-2,3.0680835E-2,2.2656897E-2,-2.0066645E-2,-3.497865E-2,-3.9781868E-3,-1.8439699E-2,-1.4981184E-3,1.2562077E-2,-1.5032052E-2,-3.2244556E-2,3.3231836E-2,7.621628E-2,1.6887136E-2,6.277833E-3],"categories":[],"categories_nodes":[],"categories_segments":[],"categories_sizes":[],"default_left":[0,0,0,0,0,0,0,0,0,0,0,0,0,0,0,0,0,0,0,0,0,0,0,0,0,0,0,0,0,0,0,0,0,0,0,0,0,0,0,0,0,0,0,0,0,0,0,0,0],"id":4,"left_children":[1,3,5,7,9,11,13,15,-1,17,19,21,23,25,27,29,-1,-1,-1,-1,-1,-1,-1,31,33,-1,-1,35,-1,37,39,41,43,45,47,-1,-1,-1,-1,-1,-1,-1,-1,-1,-1,-1,-1,-1,-1],"loss_changes":[3.712292E1,3.230032E0,9.6366005E0,9.29657E-1,2.1847418E-1,1.3122363E0,8.614502E-1,5.3974724E-1,0E0,8.277334E-4,1.8276677E-1,1.718359E-1,8.829713E-1,1.8240261E-1,3.0992508E-2,4.6216297E-1,0E0,0E0,0E0,0E0,0E0,0E0,0E0,2.4818232E0,2.6492133E0,0E0,0E0,1.3689995E-2,0E0,2.6013327E-1,1.4225149E0,8.625662E-1,1.9012487E-1,4.0888667E-1,8.706877E-1,0E0,0E0,0E0,0E0,0E0,0E0,0E0,0E0,0E0,0E0,0E0,0E0,0E0,0E0],"parents":[2147483647,0,0,1,1,2,2,3,3,4,4,5,5,6,6,7,7,9,9,10,10,11,11,12,12,13,13,14,14,15,15,23,23,24,24,27,27,29,29,30,30,31,31,32,32,33,33,34,34],"right_children":[2,4,6,8,10,12,14,16,-1,18,20,22,24,26,28,30,-1,-1,-1,-1,-1,-1,-1,32,34,-1,-1,36,-1,38,40,42,44,46,48,-1,-1,-1,-1,-1,-1,-1,-1,-1,-1,-1,-1,-1,-1],"split_conditions":[1E0,1E0,5E-1,7.1653134E-1,2.2E1,4E0,1.5E1,5E-1,-3.8088437E-2,8E0,2.9E1,2E0,1.6E1,8E0,2.9E1,1.1E1,-2.3650752E-2,1.5620672E-3,2.4571957E-3,-1.4898892E-2,-2.2855464E-3,2.6893301E-2,1.6578084E-2,1.2E1,1.8E1,4.1184153E-2,6.316353E-2,2.2E1,3.4333907E-2,1E1,2E1,7E0,1.3E1,1.7E1,2.4E1,3.0680835E-2,2.2656897E-2,-2.0066645E-2,-3.497865E-2,-3.9781868E-3,-1.8439699E-2,-1.4981184E-3,1.2562077E-2,-1.5032052E-2,-3.2244556E-2,3.3231836E-2,7.621628E-2,1.6887136E-2,6.277833E-3],"split_indices":[2,0,0,6,4,4,4,0,0,4,4,4,4,4,4,4,0,0,0,0,0,0,0,4,4,0,0,4,0,4,4,4,4,4,4,0,0,0,0,0,0,0,0,0,0,0,0,0,0],"split_type":[0,0,0,0,0,0,0,0,0,0,0,0,0,0,0,0,0,0,0,0,0,0,0,0,0,0,0,0,0,0,0,0,0,0,0,0,0,0,0,0,0,0,0,0,0,0,0,0,0],"sum_hessian":[1.7498949E3,7.691631E2,9.807319E2,6.4688794E2,1.2227512E2,8.3290796E2,1.4782391E2,6.218295E2,2.5058418E1,6.924157E1,5.3033554E1,9.118127E1,7.417267E2,3.7072712E1,1.10751205E2,4.668048E2,1.5502475E2,2.3775541E1,4.5466026E1,1.5955554E1,3.7078E1,2.7690165E1,6.34911E1,2.0689279E2,5.348339E2,2.4600426E1,1.2472287E1,5.351241E1,5.7238796E1,7.9127914E1,3.8767688E2,1.7566725E2,3.122554E1,1.369814E1,5.2113574E2,2.9632038E1,2.3880373E1,6.177711E1,1.7350803E1,8.881314E1,2.9886374E2,7.7680954E1,9.79863E1,1.667024E1,1.4555301E1,9.276937E0,4.4212036E0,9.432533E1,4.2681042E2],"tree_param":{"num_deleted":"0","num_feature":"7","num_nodes":"49","size_leaf_vector":"1"}},{"base_weights":[4.1195958E-9,-1.5508412E-1,1.2169567E-1,-1.8098949E-1,-1.892873E-2,8.2517855E-2,3.4246513E-1,-1.7342506E-1,-3.605203E-2,1.3507169E-2,-6.1473E-2,2.0633084E-1,7.0140585E-2,4.7544348E-1,2.9511845E-1,-1.5565902E-1,-2.2486504E-2,-2.9788467E-3,3.0630652E-3,-1.4279807E-2,-2.370878E-3,2.650333E-2,1.6761651E-2,3.2090865E-2,8.510968E-2,3.824742E-2,6.252257E-2,2.5909194E-1,3.238491E-2,-1.2639993E-1,-1.9002482E-1,9.5338497E-4,-2.6255709E-3,7.073863E-2,-1.646739E-1,4.9531153E-1,7.261913E-2,2.883837E-2,2.1202596E-2,-1.9586794E-2,-6.7357398E-3,-5.537522E-2,-1.5038765E-2,1.6039128E-3,1.2900293E-2,-1.1647579E-2,-2.9510811E-2,1.1461873E-2,5.6326356E-2,-1.1351454E-2,8.4631955E-3],"categories":[],"categories_nodes":[],"categories_segments":[],"categories_sizes":[],"default_left":[0,0,0,0,0,0,0,0,0,0,0,0,0,0,0,0,0,0,0,0,0,0,0,0,0,0,0,0,0,0,0,0,0,0,0,0,0,0,0,0,0,0,0,0,0,0,0,0,0,0,0],"id":5,"left_children":[1,3,5,7,9,11,13,15,-1,17,19,21,23,25,27,29,-1,31,-1,-1,-1,-1,-1,33,35,-1,-1,37,-1,39,41,-1,-1,43,45,47,49,-1,-1,-1,-1,-1,-1,-1,-1,-1,-1,-1,-1,-1,-1],"loss_changes":[3.221508E1,2.6437492E0,8.244092E0,7.936249E-1,1.6792434E-1,1.2323318E0,7.6524925E-1,5.196018E-1,0E0,1.9717976E-2,1.5803888E-1,1.2244654E-1,4.1941476E-1,2.639494E-1,2.8606415E-2,4.3280792E-1,0E0,1.0832574E-2,0E0,0E0,0E0,0E0,0E0,1.6151603E0,2.686244E0,0E0,0E0,1.2238264E-2,0E0,1.0055592E0,2.9002404E0,0E0,0E0,5.6186E-1,1.8514514E-1,3.371365E-1,1.1651132E0,0E0,0E0,0E0,0E0,0E0,0E0,0E0,0E0,0E0,0E0,0E0,0E0,0E0,0E0],"parents":[2147483647,0,0,1,1,2,2,3,3,4,4,5,5,6,6,7,7,9,9,10,10,11,11,12,12,13,13,14,14,15,15,17,17,23,23,24,24,27,27,29,29,30,30,33,33,34,34,35,35,36,36],"right_children":[2,4,6,8,10,12,14,16,-1,18,20,22,24,26,28,30,-1,32,-1,-1,-1,-1,-1,34,36,-1,-1,38,-1,40,42,-1,-1,44,46,48,50,-1,-1,-1,-1,-1,-1,-1,-1,-1,-1,-1,-1,-1,-1],"split_conditions":[1E0,1E0,5E-1,7.1653134E-1,2.2E1,3E0,1.5E1,5E-1,-3.605203E-2,1.5E1,2.9E1,2E0,1.4E1,8E0,2.9E1,2.7E1,-2.2486504E-2,8E0,3.0630652E-3,-1.4279807E-2,-2.370878E-3,2.650333E-2,1.6761651E-2,1.1E1,1.8E1,3.824742E-2,6.252257E-2,2.2E1,3.238491E-2,1.3E1,3E1,9.5338497E-4,-2.6255709E-3,7E0,1.3E1,1.6E1,2.1E1,2.883837E-2,2.1202596E-2,-1.9586794E-2,-6.7357398E-3,-5.537522E-2,-1.5038765E-2,1.6039128E-3,1.2900293E-2,-1.1647579E-2,-2.9510811E-2,1.1461873E-2,5.6326356E-2,-1.1351454E-2,8.4631955E-3],"split_indices":[2,0,0,6,4,4,4,0,0,4,4,4,4,4,4,4,0,4,0,0,0,0,0,4,4,0,0,4,0,4,4,0,0,4,4,4,4,0,0,0,0,0,0,0,0,0,0,0,0,0,0],"split_type":[0,0,0,0,0,0,0,0,0,0,0,0,0,0,0,0,0,0,0,0,0,0,0,0,0,0,0,0,0,0,0,0,0,0,0,0,0,0,0,0,0,0,0,0,0,0,0,0,0,0,0],"sum_hessian":[1.7049343E3,7.495119E2,9.554225E2,6.294259E2,1.20085976E2,8.125932E2,1.4282927E2,6.0586414E2,2.3561771E1,6.852488E1,5.1561092E1,7.2426125E1,7.401671E2,3.512765E1,1.07701614E2,4.5332382E2,1.525403E2,3.5333145E1,3.319174E1,1.5468484E1,3.609261E1,2.6459606E1,4.5966515E1,2.0986305E2,5.303041E2,2.3867018E1,1.1260634E1,5.2228363E1,5.547325E1,2.4738124E2,2.0594258E2,2.3364014E1,1.19691305E1,1.759451E2,3.3917953E1,1.45282135E1,5.157758E2,2.9032583E1,2.3195778E1,1.1259146E2,1.3478978E2,1.8962667E1,1.8697992E2,9.140647E1,8.453863E1,2.6148523E1,7.7694287E0,2.6073904E0,1.1920823E1,3.075716E1,4.8501868E2],"tree_param":{"num_deleted":"0","num_feature":"7","num_nodes":"51","size_leaf_vector":"1"}},{"base_weights":[5.4157447E-9,-1.4760286E-1,1.145644E-1,-1.7245181E-1,-1.7488156E-2,7.956599E-2,3.1281367E-1,-3.1516675E-2,-1.629178E-1,1.7162014E-2,-6.309842E-2,1.9623955E-1,6.8028964E-2,4.577927E-1,2.6336697E-1,-1.4729978E-1,-2.0627884E-2,3.7520062E-3,3.0988287E-3,-1.4073427E-2,-2.7429392E-3,2.537484E-2,1.5866632E-2,-1.2040777E-2,7.487328E-2,3.660465E-2,6.126362E-2,2.1336451E-1,3.068921E-2,-2.0351548E-1,-1.3740587E-1,1.0114184E-3,-8.2357146E-4,3.2172814E-2,-9.146047E-3,1.1335982E-1,5.13462E-2,2.6469314E-2,1.424671E-2,-2.9452657E-3,-2.4175392E-2,-5.1905774E-3,-1.6288629E-2,7.263496E-3,2.7452106E-5,6.072974E-3,2.7149662E-2,5.937494E-4,5.914053E-3],"categories":[],"categories_nodes":[],"categories_segments":[],"categories_sizes":[],"default_left":[0,0,0,0,0,0,0,0,0,0,0,0,0,0,0,0,0,0,0,0,0,0,0,0,0,0,0,0,0,0,0,0,0,0,0,0,0,0,0,0,0,0,0,0,0,0,0,0,0],"id":6,"left_children":[1,3,5,7,9,11,13,-1,15,17,19,21,23,25,27,29,-1,31,-1,-1,-1,-1,-1,33,35,-1,-1,37,-1,39,41,-1,-1,43,-1,45,47,-1,-1,-1,-1,-1,-1,-1,-1,-1,-1,-1,-1],"loss_changes":[2.8264698E1,2.3585815E0,6.504554E0,7.8297424E-1,1.8794638E-1,1.0651112E0,8.892422E-1,0E0,3.6026573E-1,1.2487592E-2,1.3808776E-1,1.1437583E-1,4.0130353E-1,2.6543665E-1,1.6824579E-1,2.0986271E-1,0E0,2.801971E-3,0E0,0E0,0E0,0E0,0E0,2.0800024E-1,6.0377526E-1,0E0,0E0,1.5610313E-1,0E0,4.049797E-1,7.903867E-1,0E0,0E0,4.935225E-2,0E0,2.1023755E0,1.4817417E-1,0E0,0E0,0E0,0E0,0E0,0E0,0E0,0E0,0E0,0E0,0E0,0E0],"parents":[2147483647,0,0,1,1,2,2,3,3,4,4,5,5,6,6,8,8,9,9,10,10,11,11,12,12,13,13,14,14,15,15,17,17,23,23,24,24,27,27,29,29,30,30,33,33,35,35,36,36],"right_children":[2,4,6,8,10,12,14,-1,16,18,20,22,24,26,28,30,-1,32,-1,-1,-1,-1,-1,34,36,-1,-1,38,-1,40,42,-1,-1,44,-1,46,48,-1,-1,-1,-1,-1,-1,-1,-1,-1,-1,-1,-1],"split_conditions":[1E0,1E0,5E-1,5E0,2.2E1,3E0,1.5E1,-3.1516675E-2,5E-1,1.5E1,2.9E1,2E0,6E0,8E0,2.9E1,1.1E1,-2.0627884E-2,8E0,3.0988287E-3,-1.4073427E-2,-2.7429392E-3,2.537484E-2,1.5866632E-2,5E0,2.4E1,3.660465E-2,6.126362E-2,2.2E1,3.068921E-2,6E0,2E1,1.0114184E-3,-8.2357146E-4,4E0,-9.146047E-3,2.1E1,2.7E1,2.6469314E-2,1.424671E-2,-2.9452657E-3,-2.4175392E-2,-5.1905774E-3,-1.6288629E-2,7.263496E-3,2.7452106E-5,6.072974E-3,2.7149662E-2,5.937494E-4,5.914053E-3],"split_indices":[2,0,0,4,4,4,4,0,0,4,4,4,4,4,4,4,0,4,0,0,0,0,0,4,4,0,0,4,0,4,4,0,0,4,0,4,4,0,0,0,0,0,0,0,0,0,0,0,0],"split_type":[0,0,0,0,0,0,0,0,0,0,0,0,0,0,0,0,0,0,0,0,0,0,0,0,0,0,0,0,0,0,0,0,0,0,0,0,0,0,0,0,0,0,0,0,0,0,0,0,0],"sum_hessian":[1.6694752E3,7.294175E2,9.4005774E2,6.121796E2,1.1723782E2,8.0019476E2,1.3986295E2,3.632802E1,5.758516E2,6.6978165E1,5.0259655E1,7.0564896E1,7.296299E2,3.3469933E1,1.0639301E2,4.2659537E2,1.4925626E2,3.4646317E1,3.2331852E1,1.48947525E1,3.5364902E1,2.561131E1,4.4953587E1,5.739722E1,6.7223267E2,2.3129482E1,1.0340451E1,5.2259014E1,5.4134E1,6.0915127E1,3.6568024E2,2.2736032E1,1.1910283E1,3.7253044E1,2.0144175E1,2.5358691E2,4.1864575E2,2.8727373E1,2.353164E1,1.1290513E1,4.9624615E1,8.465515E1,2.810251E2,1.5859106E1,2.139394E1,1.9130278E2,6.2284134E1,6.1590343E1,3.5705542E2],"tree_param":{"num_deleted":"0","num_feature":"7","num_nodes":"49","size_leaf_vector":"1"}},{"base_weights":[1.1364755E-11,-1.4208595E-1,1.09680586E-1,-1.6485621E-1,-2.4319805E-2,7.56761E-2,3.0460858E-1,-2.705034E-1,-1.5181342E-1,4.043948E-3,-6.196572E-2,1.8778841E-1,6.467302E-2,4.4095376E-1,2.5867736E-1,-1.6803695E-2,-2.8896078E-1,-1.3100486E-1,-2.0561757E-2,-1.6894745E-2,2.6541776E-3,-1.3812661E-2,-2.6841194E-3,2.452029E-2,1.5077899E-2,3.377522E-2,7.640113E-2,3.498027E-2,6.0062833E-2,2.1519186E-1,2.9582847E-2,-3.554268E-2,-2.5203434E-1,-7.840377E-2,-1.5179166E-1,-1.8881581E-3,-1.1808936E-3,6.769692E-2,-1.4840534E-1,5.027845E-1,6.380368E-2,2.5432853E-2,1.5772328E-2,-1.8162334E-2,-3.0803075E-2,-1.2606665E-2,1.0877047E-2,-2.442435E-2,-1.4418614E-2,2.2579494E-3,1.14607895E-2,-1.0531458E-2,-2.6560565E-2,7.2493153E-3,6.017207E-2,-1.2020166E-2,7.5716623E-3],"categories":[],"categories_nodes":[],"categories_segments":[],"categories_sizes":[],"default_left":[0,0,0,0,0,0,0,0,0,0,0,0,0,0,0,0,0,0,0,0,0,0,0,0,0,0,0,0,0,0,0,0,0,0,0,0,0,0,0,0,0,0,0,0,0,0,0,0,0,0,0,0,0,0,0,0,0],"id":7,"left_children":[1,3,5,7,9,11,13,15,17,19,21,23,25,27,29,-1,31,33,-1,35,-1,-1,-1,-1,-1,37,39,-1,-1,41,-1,-1,43,45,47,-1,-1,49,51,53,55,-1,-1,-1,-1,-1,-1,-1,-1,-1,-1,-1,-1,-1,-1,-1,-1],"loss_changes":[2.5557354E1,1.9118137E0,6.111724E0,7.836437E-1,1.2510565E-1,9.616213E-1,7.4478817E-1,7.341337E-2,5.720644E-1,3.230476E-2,1.3086377E-1,1.11819744E-1,2.584579E-1,2.7221823E-1,1.0597658E-1,0E0,4.113388E-2,4.1296005E-1,0E0,1.371298E-4,0E0,0E0,0E0,0E0,0E0,1.2459732E0,2.7683613E0,0E0,0E0,7.694483E-2,0E0,0E0,9.259629E-2,1.0140355E0,1.5986252E-1,0E0,0E0,3.5570663E-1,1.3215196E-1,5.8713126E-1,1.1216745E0,0E0,0E0,0E0,0E0,0E0,0E0,0E0,0E0,0E0,0E0,0E0,0E0,0E0,0E0,0E0,0E0],"parents":[2147483647,0,0,1,1,2,2,3,3,4,4,5,5,6,6,7,7,8,8,9,9,10,10,11,11,12,12,13,13,14,14,16,16,17,17,19,19,25,25,26,26,29,29,32,32,33,33,34,34,37,37,38,38,39,39,40,40],"right_children":[2,4,6,8,10,12,14,16,18,20,22,24,26,28,30,-1,32,34,-1,36,-1,-1,-1,-1,-1,38,40,-1,-1,42,-1,-1,44,46,48,-1,-1,50,52,54,56,-1,-1,-1,-1,-1,-1,-1,-1,-1,-1,-1,-1,-1,-1,-1,-1],"split_conditions":[1E0,1E0,5E-1,9E0,2.2E1,3E0,1.5E1,2E0,5E-1,1.5E1,2.9E1,2E0,1.4E1,8E0,2.9E1,-1.6803695E-2,4E0,2E1,-2.0561757E-2,8E0,2.6541776E-3,-1.3812661E-2,-2.6841194E-3,2.452029E-2,1.5077899E-2,1.1E1,1.8E1,3.498027E-2,6.0062833E-2,2.2E1,2.9582847E-2,-3.554268E-2,6E0,1.9E1,2.3E1,-1.8881581E-3,-1.1808936E-3,7E0,1.3E1,1.6E1,2.1E1,2.5432853E-2,1.5772328E-2,-1.8162334E-2,-3.0803075E-2,-1.2606665E-2,1.0877047E-2,-2.442435E-2,-1.4418614E-2,2.2579494E-3,1.14607895E-2,-1.0531458E-2,-2.6560565E-2,7.2493153E-3,6.017207E-2,-1.2020166E-2,7.5716623E-3],"split_indices":[2,0,0,4,4,4,4,4,0,4,4,4,4,4,4,0,4,4,0,4,0,0,0,0,0,4,4,0,0,4,0,0,4,4,4,0,0,4,4,4,4,0,0,0,0,0,0,0,0,0,0,0,0,0,0,0,0],"split_type":[0,0,0,0,0,0,0,0,0,0,0,0,0,0,0,0,0,0,0,0,0,0,0,0,0,0,0,0,0,0,0,0,0,0,0,0,0,0,0,0,0,0,0,0,0,0,0,0,0,0,0,0,0,0,0,0,0],"sum_hessian":[1.6379664E3,7.134416E2,9.245249E2,5.9751196E2,1.1592962E2,7.8838257E2,1.361423E2,6.3491135E1,5.340208E2,6.662476E1,4.9304855E1,6.9023415E1,7.1935913E2,3.2138874E1,1.0400343E2,1.1233303E1,5.225783E1,3.8756595E2,1.4645486E2,3.463711E1,3.1987654E1,1.4636307E1,3.466855E1,2.484883E1,4.4174583E1,1.9899223E2,5.2036694E2,2.2490677E1,9.648198E0,5.1046093E1,5.2957336E1,1.5583304E1,3.6674526E1,1.11127975E2,2.76438E2,2.2956322E1,1.1680789E1,1.6828607E2,3.0706161E1,1.3816341E1,5.065506E2,2.8328545E1,2.2717548E1,1.8126013E1,1.8548513E1,8.8833496E1,2.229448E1,1.864749E1,2.577905E2,8.6537994E1,8.174807E1,2.3839672E1,6.8664885E0,2.9068131E0,1.0909529E1,3.0248411E1,4.763022E2],"tree_param":{"num_deleted":"0","num_feature":"7","num_nodes":"57","size_leaf_vector":"1"}},{"base_weights":[5.9770913E-9,-1.3759132E-1,1.0628059E-1,-1.6018623E-1,-1.9932363E-2,7.327585E-2,2.9841092E-1,-2.6114768E-1,-1.4814886E-1,7.307944E-3,-5.642793E-2,1.788418E-1,6.2989205E-2,4.2764652E-1,2.553429E-1,-2.2762877E-1,-3.1862628E-2,-1.2964186E-1,-1.9622752E-2,-7.594848E-4,1.4928732E-3,-1.3538758E-2,-1.979155E-3,2.3598019E-2,1.4239537E-2,8.9064464E-2,4.4220332E-2,3.4015786E-2,5.848083E-2,2.2053672E-2,2.837713E-2,-1.7103849E-2,-2.8989723E-2,-1.0117262E-1,-1.5269265E-1,4.702E-2,2.5063908E-1,5.910958E-3,5.0670017E-2,-1.2123562E-2,8.472841E-3,-2.6258225E-2,-1.3117522E-2,6.188573E-3,-1.18737295E-2,3.3358928E-2,1.521793E-2,4.1659805E-3,-1.077828E-2,1.3773756E-2,3.88101E-3],"categories":[],"categories_nodes":[],"categories_segments":[],"categories_sizes":[],"default_left":[0,0,0,0,0,0,0,0,0,0,0,0,0,0,0,0,0,0,0,0,0,0,0,0,0,0,0,0,0,0,0,0,0,0,0,0,0,0,0,0,0,0,0,0,0,0,0,0,0,0,0],"id":8,"left_children":[1,3,5,7,9,11,13,15,17,19,21,23,25,27,29,31,-1,33,-1,-1,-1,-1,-1,-1,-1,35,37,-1,-1,-1,-1,-1,-1,39,41,43,45,47,49,-1,-1,-1,-1,-1,-1,-1,-1,-1,-1,-1,-1],"loss_changes":[2.3658955E1,1.8712759E0,5.766448E0,6.799936E-1,1.1447295E-1,8.3609533E-1,6.3381004E-1,4.6312332E-2,4.4674683E-1,7.6751024E-3,1.3950215E-1,1.09550476E-1,3.447988E-1,2.3948717E-1,3.8945675E-2,1.00051165E-1,0E0,2.3794031E-1,0E0,0E0,0E0,0E0,0E0,0E0,0E0,2.0075448E0,1.02567196E-1,0E0,0E0,0E0,0E0,0E0,0E0,6.656617E-1,4.6542358E-1,5.9159887E-1,4.4864154E-1,2.5292128E-1,3.6247134E-1,0E0,0E0,0E0,0E0,0E0,0E0,0E0,0E0,0E0,0E0,0E0,0E0],"parents":[2147483647,0,0,1,1,2,2,3,3,4,4,5,5,6,6,7,7,8,8,9,9,10,10,11,11,12,12,13,13,14,14,15,15,17,17,25,25,26,26,33,33,34,34,35,35,36,36,37,37,38,38],"right_children":[2,4,6,8,10,12,14,16,18,20,22,24,26,28,30,32,-1,34,-1,-1,-1,-1,-1,-1,-1,36,38,-1,-1,-1,-1,-1,-1,40,42,44,46,48,50,-1,-1,-1,-1,-1,-1,-1,-1,-1,-1,-1,-1],"split_conditions":[1E0,1E0,5E-1,9E0,2.2E1,3E0,1.5E1,7.1653134E-1,5E-1,8E0,2.9E1,2E0,2.4E1,8E0,2.9E1,6E0,-3.1862628E-2,2.6E1,-1.9622752E-2,-7.594848E-4,1.4928732E-3,-1.3538758E-2,-1.979155E-3,2.3598019E-2,1.4239537E-2,2.1E1,2.7E1,3.4015786E-2,5.848083E-2,2.2053672E-2,2.837713E-2,-1.7103849E-2,-2.8989723E-2,2.5E1,3E1,1.9E1,2.3E1,2.6E1,3E1,-1.2123562E-2,8.472841E-3,-2.6258225E-2,-1.3117522E-2,6.188573E-3,-1.18737295E-2,3.3358928E-2,1.521793E-2,4.1659805E-3,-1.077828E-2,1.3773756E-2,3.88101E-3],"split_indices":[2,0,0,4,4,4,4,6,0,4,4,4,4,4,4,4,0,4,0,0,0,0,0,0,0,4,4,0,0,0,0,0,0,4,4,4,4,4,4,0,0,0,0,0,0,0,0,0,0,0,0],"split_type":[0,0,0,0,0,0,0,0,0,0,0,0,0,0,0,0,0,0,0,0,0,0,0,0,0,0,0,0,0,0,0,0,0,0,0,0,0,0,0,0,0,0,0,0,0,0,0,0,0,0,0],"sum_hessian":[1.615896E3,7.0408704E2,9.118089E2,5.9035535E2,1.1373171E2,7.7931683E2,1.3249205E2,6.068398E1,5.296713E2,6.558144E1,4.8150265E1,6.774125E1,7.115756E2,3.0884975E1,1.0160708E2,4.146418E1,1.92198E1,3.8512213E2,1.4454922E2,2.2190443E1,4.3391003E1,1.4406206E1,3.3744057E1,2.4249594E1,4.3491657E1,2.9625232E2,4.1532327E2,2.1873072E1,9.011904E0,4.9616703E1,5.1990376E1,2.3685404E1,1.7778776E1,1.7472018E2,2.1040193E2,2.3610484E2,6.0147488E1,6.0123367E1,3.551999E2,1.5801462E2,1.6705572E1,3.261807E1,1.7778387E2,2.172479E2,1.8856947E1,3.134877E1,2.8798717E1,4.6223E1,1.3900367E1,4.1310715E1,3.138892E2],"tree_param":{"num_deleted":"0","num_feature":"7","num_nodes":"51","size_leaf_vector":"1"}},{"base_weights":[4.611644E-9,-1.3066144E-1,1.0176336E-1,-1.5256739E-1,-1.6200507E-2,7.1181886E-2,2.7824077E-1,-2.5145036E-1,-1.4090157E-1,2.0460976E-2,-6.485176E-2,1.7157617E-1,6.1351802E-2,4.1265282E-1,2.3482826E-1,-2.2278173E-1,-3.0088494E-2,-1.2652957E-1,-1.7877968E-2,4.9874844E-4,2.792258E-2,-1.3829462E-2,-3.0741966E-3,2.2857359E-2,1.3560343E-2,2.6245907E-2,7.501993E-2,3.2707673E-2,5.710413E-2,1.9505344E-1,2.6883299E-2,-1.7671396E-1,-2.7385304E-2,-1.0111882E-1,-1.477574E-1,5.0860574E-3,1.7719656E-3,5.6988902E-2,-1.321925E-1,6.0383927E-2,6.3068725E-2,2.318723E-2,1.3984586E-2,-2.0781627E-2,-1.2926141E-2,-1.2431761E-2,7.4091787E-3,-2.6271317E-2,-1.2741739E-2,1.5271249E-3,1.0030333E-2,-5.428566E-3,-1.6230209E-2,1.3378431E-2,4.7468105E-3],"categories":[],"categories_nodes":[],"categories_segments":[],"categories_sizes":[],"default_left":[0,0,0,0,0,0,0,0,0,0,0,0,0,0,0,0,0,0,0,0,0,0,0,0,0,0,0,0,0,0,0,0,0,0,0,0,0,0,0,0,0,0,0,0,0,0,0,0,0,0,0,0,0,0,0],"id":9,"left_children":[1,3,5,7,9,11,13,15,17,19,21,23,25,27,29,31,-1,33,-1,-1,35,-1,-1,-1,-1,37,39,-1,-1,41,-1,43,-1,45,47,-1,-1,49,51,-1,53,-1,-1,-1,-1,-1,-1,-1,-1,-1,-1,-1,-1,-1,-1],"loss_changes":[2.1178364E1,1.7460947E0,4.8126307E0,6.3965607E-1,2.0313358E-1,7.439468E-1,6.7276955E-1,1.8684864E-2,2.6358414E-1,7.3980875E-3,1.1815189E-1,1.0765684E-1,3.3289504E-1,2.317934E-1,8.554983E-2,5.0736427E-2,0E0,1.9249249E-1,0E0,0E0,9.355675E-3,0E0,0E0,0E0,0E0,9.676161E-1,3.1331189E0,0E0,0E0,7.055938E-2,0E0,9.992123E-3,0E0,7.3353374E-1,4.5135927E-1,0E0,0E0,2.980193E-1,6.703228E-2,0E0,5.362041E-1,0E0,0E0,0E0,0E0,0E0,0E0,0E0,0E0,0E0,0E0,0E0,0E0,0E0,0E0],"parents":[2147483647,0,0,1,1,2,2,3,3,4,4,5,5,6,6,7,7,8,8,9,9,10,10,11,11,12,12,13,13,14,14,15,15,17,17,20,20,25,25,26,26,29,29,31,31,33,33,34,34,37,37,38,38,40,40],"right_children":[2,4,6,8,10,12,14,16,18,20,22,24,26,28,30,32,-1,34,-1,-1,36,-1,-1,-1,-1,38,40,-1,-1,42,-1,44,-1,46,48,-1,-1,50,52,-1,54,-1,-1,-1,-1,-1,-1,-1,-1,-1,-1,-1,-1,-1,-1],"split_conditions":[1E0,1E0,5E-1,9E0,2.2E1,3E0,1.5E1,7.1653134E-1,5E-1,8E0,2.9E1,2E0,1.6E1,8E0,2.9E1,6E0,-3.0088494E-2,2.6E1,-1.7877968E-2,4.9874844E-4,1.5E1,-1.3829462E-2,-3.0741966E-3,2.2857359E-2,1.3560343E-2,1.1E1,1.8E1,3.2707673E-2,5.710413E-2,2.2E1,2.6883299E-2,2E0,-2.7385304E-2,2.5E1,3E1,5.0860574E-3,1.7719656E-3,7E0,1.2E1,6.0383927E-2,2.4E1,2.318723E-2,1.3984586E-2,-2.0781627E-2,-1.2926141E-2,-1.2431761E-2,7.4091787E-3,-2.6271317E-2,-1.2741739E-2,1.5271249E-3,1.0030333E-2,-5.428566E-3,-1.6230209E-2,1.3378431E-2,4.7468105E-3],"split_indices":[2,0,0,4,4,4,4,6,0,4,4,4,4,4,4,4,0,4,0,0,4,0,0,0,0,4,4,0,0,4,0,4,0,4,4,0,0,4,4,0,4,0,0,0,0,0,0,0,0,0,0,0,0,0,0],"split_type":[0,0,0,0,0,0,0,0,0,0,0,0,0,0,0,0,0,0,0,0,0,0,0,0,0,0,0,0,0,0,0,0,0,0,0,0,0,0,0,0,0,0,0,0,0,0,0,0,0,0,0,0,0,0,0],"sum_hessian":[1.5907717E3,6.963688E2,8.9440295E2,5.842248E2,1.12143974E2,7.6350055E2,1.3090237E2,5.9482105E1,5.247427E2,6.428272E1,4.7861248E1,6.662345E1,6.9687714E2,2.9880915E1,1.0102146E2,4.11339E1,1.8348204E1,3.835527E2,1.4118997E2,2.1456255E1,4.282647E1,1.4210271E1,3.3650978E1,2.370683E1,4.2916622E1,1.9610692E2,5.007702E2,2.1389406E1,8.4915085E0,4.9665047E1,5.135642E1,2.3971272E1,1.7162628E1,1.771995E2,2.0635321E2,1.1957953E1,3.0868515E1,1.6477475E2,3.1332172E1,9.97266E0,4.9079755E2,2.7874844E1,2.1790203E1,1.2438875E1,1.1532396E1,1.5673715E2,2.0462341E1,2.9231157E1,1.7712206E2,8.462347E1,8.015128E1,9.515162E0,2.181701E1,8.733661E1,4.0346094E2],"tree_param":{"num_deleted":"0","num_feature":"7","num_nodes":"55","size_leaf_vector":"1"}},{"base_weights":[1.6530539E-9,-1.22905985E-1,9.424834E-2,-1.4455992E-1,-1.03425225E-2,6.372045E-2,2.731568E-1,-2.4082579E-1,-1.3326468E-1,2.1211056E-2,-5.2681286E-2,1.568898E-1,5.2569784E-2,3.9297563E-1,2.3443142E-1,-2.1204245E-1,-2.9061852E-2,-1.1777267E-1,-1.7342377E-2,5.3324853E-4,2.8862245E-2,-1.4470962E-2,-9.3036407E-4,2.2055447E-2,1.2730104E-2,-2.8459728E-2,5.7503745E-2,3.0854315E-2,5.560223E-2,2.045709E-2,2.5847087E-2,-1.6886592E-2,-2.5945038E-2,-7.685725E-2,-1.337792E-1,4.1338163E-3,2.2989684E-3,3.6006165E-3,-1.0314466E-2,8.203241E-2,4.281732E-2,-1.34632215E-2,9.88153E-3,-2.9247371E-2,-1.2925341E-2,3.5196412E-3,2.2275252E-2,2.3684325E-3,4.5883423E-3],"categories":[],"categories_nodes":[],"categories_segments":[],"categories_sizes":[],"default_left":[0,0,0,0,0,0,0,0,0,0,0,0,0,0,0,0,0,0,0,0,0,0,0,0,0,0,0,0,0,0,0,0,0,0,0,0,0,0,0,0,0,0,0,0,0,0,0,0,0],"id":10,"left_children":[1,3,5,7,9,11,13,15,17,19,21,23,25,27,29,31,-1,33,-1,-1,35,-1,-1,-1,-1,37,39,-1,-1,-1,-1,-1,-1,41,43,-1,-1,-1,-1,45,47,-1,-1,-1,-1,-1,-1,-1,-1],"loss_changes":[1.816745E1,1.6576586E0,4.8307834E0,5.88562E-1,1.4926888E-1,7.8088665E-1,5.0682926E-1,2.2508144E-2,2.9879665E-1,7.6523647E-3,1.8884048E-1,1.2391913E-1,2.734573E-1,2.4213791E-1,1.8931389E-2,3.99009E-2,0E0,2.3424816E-1,0E0,0E0,2.2099055E-3,0E0,0E0,0E0,0E0,1.9481812E-1,2.2747493E-1,0E0,0E0,0E0,0E0,0E0,0E0,1.1027952E0,1.5398455E-1,0E0,0E0,0E0,0E0,1.5676553E0,2.2563994E-2,0E0,0E0,0E0,0E0,0E0,0E0,0E0,0E0],"parents":[2147483647,0,0,1,1,2,2,3,3,4,4,5,5,6,6,7,7,8,8,9,9,10,10,11,11,12,12,13,13,14,14,15,15,17,17,20,20,25,25,26,26,33,33,34,34,39,39,40,40],"right_children":[2,4,6,8,10,12,14,16,18,20,22,24,26,28,30,32,-1,34,-1,-1,36,-1,-1,-1,-1,38,40,-1,-1,-1,-1,-1,-1,42,44,-1,-1,-1,-1,46,48,-1,-1,-1,-1,-1,-1,-1,-1],"split_conditions":[1E0,1E0,5E-1,9E0,2.2E1,4E0,1.5E1,7.1653134E-1,5E-1,8E0,2.9E1,2E0,6E0,8E0,2.9E1,6E0,-2.9061852E-2,2E1,-1.7342377E-2,5.3324853E-4,1.5E1,-1.4470962E-2,-9.3036407E-4,2.2055447E-2,1.2730104E-2,5E0,2.4E1,3.0854315E-2,5.560223E-2,2.045709E-2,2.5847087E-2,-1.6886592E-2,-2.5945038E-2,1.8E1,2.1E1,4.1338163E-3,2.2989684E-3,3.6006165E-3,-1.0314466E-2,2.1E1,2.7E1,-1.34632215E-2,9.88153E-3,-2.9247371E-2,-1.2925341E-2,3.5196412E-3,2.2275252E-2,2.3684325E-3,4.5883423E-3],"split_indices":[2,0,0,4,4,4,4,6,0,4,4,4,4,4,4,4,0,4,0,0,4,0,0,0,0,4,4,0,0,0,0,0,0,4,4,0,0,0,0,4,4,0,0,0,0,0,0,0,0],"split_type":[0,0,0,0,0,0,0,0,0,0,0,0,0,0,0,0,0,0,0,0,0,0,0,0,0,0,0,0,0,0,0,0,0,0,0,0,0,0,0,0,0,0,0,0,0,0,0,0,0],"sum_hessian":[1.5663654E3,6.796948E2,8.866705E2,5.6979803E2,1.0989683E2,7.58586E2,1.2808449E2,5.77019E1,5.120961E2,6.3254505E1,4.6642323E1,7.968752E1,6.7889844E2,2.9051016E1,9.903348E1,3.9897266E1,1.7804634E1,3.7237808E2,1.3971802E2,2.1120308E1,4.2134197E1,1.419363E1,3.2448692E1,2.3236555E1,5.6450966E1,3.869241E1,6.4020605E2,2.1045252E1,8.005764E0,4.8410427E1,5.062305E1,2.3268013E1,1.6629251E1,1.0634463E2,2.6603348E2,1.1552458E1,3.0581738E1,2.1044926E1,1.7647484E1,2.3804591E2,4.0216013E2,8.020164E1,2.6142994E1,5.612428E0,2.6042105E2,1.7953969E2,5.8506237E1,5.6750687E1,3.4540945E2],"tree_param":{"num_deleted":"0","num_feature":"7","num_nodes":"49","size_leaf_vector":"1"}},{"base_weights":[3.4559358E-9,-1.2020044E-1,9.2771865E-2,-1.4161068E-1,-8.611554E-3,6.370081E-2,2.633143E-1,-1.7662683E-1,-1.08584225E-1,2.0808084E-2,-4.8361402E-2,1.5960564E-1,5.4405287E-2,3.7961525E-1,2.2629827E-1,-1.709408E-1,-6.464889E-2,5.9285987E-2,-1.2744147E-1,-6.15776E-4,3.42856E-2,-1.3881284E-2,-5.9471896E-4,2.1325761E-2,1.2610406E-2,3.284245E-2,6.5029636E-2,2.9744638E-2,5.4243267E-2,1.9540612E-1,2.5160486E-2,-2.3543975E-1,-1.5273723E-1,2.2690734E-2,3.956545E-2,-2.6386127E-2,-1.23650104E-1,6.592925E-3,2.0812599E-3,5.93844E-2,-2.1730026E-2,2.992529E-2,4.7989715E-2,2.1997673E-2,1.5386551E-2,-2.092605E-2,-2.8071955E-2,-9.219053E-3,-1.6892921E-2,-4.913234E-2,7.828111E-3,-6.17514E-3,-1.3153973E-2,3.4051326E-3,3.0095303E-2,9.557019E-3,4.228286E-3],"categories":[],"categories_nodes":[],"categories_segments":[],"categories_sizes":[],"default_left":[0,0,0,0,0,0,0,0,0,0,0,0,0,0,0,0,0,0,0,0,0,0,0,0,0,0,0,0,0,0,0,0,0,0,0,0,0,0,0,0,0,0,0,0,0,0,0,0,0,0,0,0,0,0,0,0,0],"id":11,"left_children":[1,3,5,7,9,11,13,15,17,19,21,23,25,27,29,31,-1,33,35,-1,37,-1,-1,-1,-1,39,41,-1,-1,43,-1,45,47,-1,49,-1,51,-1,-1,53,-1,-1,55,-1,-1,-1,-1,-1,-1,-1,-1,-1,-1,-1,-1,-1,-1],"loss_changes":[1.7296402E1,1.6130238E0,4.3234243E0,6.363306E-1,1.2944704E-1,6.5925837E-1,4.6157837E-1,6.202631E-1,9.3916917E-1,2.3404242E-2,1.7954572E-1,9.117377E-2,1.5469074E-1,2.2968626E-1,2.8188705E-2,2.8294992E-1,0E0,9.152151E-2,1.0438061E-1,0E0,1.6833406E-2,0E0,0E0,0E0,0E0,1.5265248E0,1.8119055E0,0E0,0E0,1.6199946E-2,0E0,9.936571E-3,1.9489193E-1,0E0,6.224684E-1,0E0,1.18661165E-1,0E0,0E0,1.2558851E0,0E0,0E0,1.1210513E-1,0E0,0E0,0E0,0E0,0E0,0E0,0E0,0E0,0E0,0E0,0E0,0E0,0E0,0E0],"parents":[2147483647,0,0,1,1,2,2,3,3,4,4,5,5,6,6,7,7,8,8,9,9,10,10,11,11,12,12,13,13,14,14,15,15,17,17,18,18,20,20,25,25,26,26,29,29,31,31,32,32,34,34,36,36,39,39,42,42],"right_children":[2,4,6,8,10,12,14,16,18,20,22,24,26,28,30,32,-1,34,36,-1,38,-1,-1,-1,-1,40,42,-1,-1,44,-1,46,48,-1,50,-1,52,-1,-1,54,-1,-1,56,-1,-1,-1,-1,-1,-1,-1,-1,-1,-1,-1,-1,-1,-1],"split_conditions":[1E0,1E0,5E-1,1.6E1,2.2E1,3E0,1.5E1,1.5E1,2E1,8E0,2.9E1,2E0,2.1E1,8E0,2.9E1,9E0,-6.464889E-2,1.7E1,2.1E1,-6.15776E-4,1.5E1,-1.3881284E-2,-5.9471896E-4,2.1325761E-2,1.2610406E-2,1.9E1,2.3E1,2.9744638E-2,5.4243267E-2,2.2E1,2.5160486E-2,7.1653134E-1,1.2E1,2.2690734E-2,1.8E1,-2.6386127E-2,2.4E1,6.592925E-3,2.0812599E-3,1.6E1,-2.1730026E-2,2.992529E-2,2.5E1,2.1997673E-2,1.5386551E-2,-2.092605E-2,-2.8071955E-2,-9.219053E-3,-1.6892921E-2,-4.913234E-2,7.828111E-3,-6.17514E-3,-1.3153973E-2,3.4051326E-3,3.0095303E-2,9.557019E-3,4.228286E-3],"split_indices":[2,0,0,4,4,4,4,4,4,4,4,4,4,4,4,4,0,4,4,0,4,0,0,0,0,4,4,0,0,4,0,6,4,0,4,0,4,0,0,4,0,0,4,0,0,0,0,0,0,0,0,0,0,0,0,0,0],"split_type":[0,0,0,0,0,0,0,0,0,0,0,0,0,0,0,0,0,0,0,0,0,0,0,0,0,0,0,0,0,0,0,0,0,0,0,0,0,0,0,0,0,0,0,0,0,0,0,0,0,0,0,0,0,0,0,0,0],"sum_hessian":[1.5490773E3,6.746575E2,8.744198E2,5.658252E2,1.0883227E2,7.4824567E2,1.2617416E2,2.725292E2,2.93296E2,6.281683E1,4.6015438E1,6.468634E1,6.835593E2,2.8228231E1,9.794592E1,2.7061813E2,1.911072E0,2.9402868E1,2.6389313E2,2.1114334E1,4.1702496E1,1.3963805E1,3.2051632E1,2.2802729E1,4.188361E1,2.2697981E2,4.565795E2,2.0639164E1,7.5890675E0,4.8032932E1,4.991299E1,5.6938778E1,2.1367935E2,1.9891624E0,2.7413706E1,5.280913E0,2.586122E2,1.1290767E1,3.041173E1,2.0589543E2,2.1084394E1,2.9840693E1,4.2673883E2,2.7482197E1,2.0550735E1,3.964112E1,1.7297657E1,4.6499027E1,1.6718031E2,1.0686922E0,2.6345015E1,3.0234182E1,2.2837802E2,1.8738545E2,1.8509975E1,4.401562E1,3.827232E2],"tree_param":{"num_deleted":"0","num_feature":"7","num_nodes":"57","size_leaf_vector":"1"}},{"base_weights":[5.4720015E-9,-1.1863285E-1,9.2153385E-2,-1.3879032E-1,-1.3527664E-2,6.399649E-2,2.5769064E-1,-1.7099482E-1,-1.0846998E-1,2.0489331E-2,-5.8515236E-2,1.5349516E-1,5.530031E-2,3.7086397E-1,2.221074E-1,-1.6581406E-1,-6.149393E-2,1.4042074E-2,-1.2169158E-1,-1.1191792E-4,3.11839E-2,-1.3391598E-2,-2.3420248E-3,2.0700483E-2,1.20389E-2,2.4154525E-2,6.711476E-2,2.9195825E-2,5.2964132E-2,1.9305542E-1,2.4567537E-2,-1.6903429E-1,1.7583502E-2,-4.086998E-4,1.7492399E-3,-1.6979875E-1,-1.1148292E-1,4.2103133E-3,2.5845682E-3,5.276884E-2,-1.2636296E-1,5.7310432E-2,5.6853533E-2,2.129989E-2,1.5720168E-2,-2.1214575E-2,-1.4850284E-2,-9.73615E-3,-4.364918E-2,6.190264E-3,-1.2990874E-2,1.2045222E-3,9.309301E-3,-1.3669721E-2,-8.5238833E-4,1.2932102E-2,4.1515976E-3],"categories":[],"categories_nodes":[],"categories_segments":[],"categories_sizes":[],"default_left":[0,0,0,0,0,0,0,0,0,0,0,0,0,0,0,0,0,0,0,0,0,0,0,0,0,0,0,0,0,0,0,0,0,0,0,0,0,0,0,0,0,0,0,0,0,0,0,0,0,0,0,0,0,0,0,0,0],"id":12,"left_children":[1,3,5,7,9,11,13,15,17,19,21,23,25,27,29,31,-1,33,35,-1,37,-1,-1,-1,-1,39,41,-1,-1,43,-1,45,-1,-1,-1,47,49,-1,-1,51,53,-1,55,-1,-1,-1,-1,-1,-1,-1,-1,-1,-1,-1,-1,-1,-1],"loss_changes":[1.6764437E1,1.4184933E0,4.006192E0,5.3062725E-1,1.6799368E-1,5.666106E-1,4.2153168E-1,5.213299E-1,4.7537065E-1,1.4548479E-2,1.2173183E-1,9.000647E-2,2.4677515E-1,2.0165539E-1,1.9459248E-2,3.2594156E-1,0E0,1.9092835E-3,1.1074209E-1,0E0,1.3626479E-3,0E0,0E0,0E0,0E0,8.1295335E-1,2.5055037E0,0E0,0E0,1.1413097E-3,0E0,2.0504093E-1,0E0,0E0,0E0,8.135128E-1,7.1321774E-1,0E0,0E0,2.5834897E-1,3.560996E-2,0E0,5.2839696E-1,0E0,0E0,0E0,0E0,0E0,0E0,0E0,0E0,0E0,0E0,0E0,0E0,0E0,0E0],"parents":[2147483647,0,0,1,1,2,2,3,3,4,4,5,5,6,6,7,7,8,8,9,9,10,10,11,11,12,12,13,13,14,14,15,15,17,17,18,18,20,20,25,25,26,26,29,29,31,31,35,35,36,36,39,39,40,40,42,42],"right_children":[2,4,6,8,10,12,14,16,18,20,22,24,26,28,30,32,-1,34,36,-1,38,-1,-1,-1,-1,40,42,-1,-1,44,-1,46,-1,-1,-1,48,50,-1,-1,52,54,-1,56,-1,-1,-1,-1,-1,-1,-1,-1,-1,-1,-1,-1,-1,-1],"split_conditions":[1E0,1E0,5E-1,1.8E1,2.2E1,3E0,1.5E1,1.7E1,2E1,8E0,2.9E1,2E0,1.6E1,8E0,2.9E1,1.6E1,-6.149393E-2,1.9E1,2.5E1,-1.1191792E-4,1.5E1,-1.3391598E-2,-2.3420248E-3,2.0700483E-2,1.20389E-2,1.1E1,1.8E1,2.9195825E-2,5.2964132E-2,2.2E1,2.4567537E-2,1.1E1,1.7583502E-2,-4.086998E-4,1.7492399E-3,2.4E1,2.6E1,4.2103133E-3,2.5845682E-3,7E0,1.4E1,5.7310432E-2,2.4E1,2.129989E-2,1.5720168E-2,-2.1214575E-2,-1.4850284E-2,-9.73615E-3,-4.364918E-2,6.190264E-3,-1.2990874E-2,1.2045222E-3,9.309301E-3,-1.3669721E-2,-8.5238833E-4,1.2932102E-2,4.1515976E-3],"split_indices":[2,0,0,4,4,4,4,4,4,4,4,4,4,4,4,4,0,4,4,0,4,0,0,0,0,4,4,0,0,4,0,4,0,0,0,4,4,0,0,4,4,0,4,0,0,0,0,0,0,0,0,0,0,0,0,0,0],"split_type":[0,0,0,0,0,0,0,0,0,0,0,0,0,0,0,0,0,0,0,0,0,0,0,0,0,0,0,0,0,0,0,0,0,0,0,0,0,0,0,0,0,0,0,0,0,0,0,0,0,0,0,0,0,0,0,0,0],"sum_hessian":[1.5314608E3,6.6941187E2,8.6204895E2,5.614201E2,1.079918E2,7.3791986E2,1.2412914E2,2.7000113E2,2.9141898E2,6.180386E1,4.6187943E1,6.38759E1,6.7404395E2,2.7438353E1,9.669079E1,2.6824426E2,1.7568674E0,2.8380611E1,2.6303836E2,2.0757805E1,4.1046055E1,1.3775595E1,3.2412346E1,2.2406843E1,4.1469055E1,1.8620543E2,4.878385E2,2.0225777E1,7.2125754E0,4.7423645E1,4.9267147E1,2.6624005E2,2.0042155E0,4.5082655E0,2.3872347E1,4.331036E1,2.19728E2,1.1216268E1,2.9829788E1,1.5700685E2,2.9198566E1,8.606244E0,4.7923227E2,2.7298325E1,2.012532E1,8.2879295E1,1.8336075E2,3.513289E1,8.177472E0,2.0880896E1,1.9884709E2,7.876267E1,7.824419E1,2.669724E1,2.5013242E0,8.24129E1,3.9681937E2],"tree_param":{"num_deleted":"0","num_feature":"7","num_nodes":"57","size_leaf_vector":"1"}},{"base_weights":[-4.6551304E-10,-1.14473686E-1,8.84824E-2,-1.3478857E-1,-8.775825E-3,6.0952764E-2,2.5209582E-1,-1.6340029E-1,-1.0848946E-1,2.3940142E-2,-5.24575E-2,1.4826617E-1,5.252453E-2,3.5895798E-1,2.1874046E-1,-1.5559953E-1,-2.6410317E-2,-1.4908971E-3,-1.214359E-1,-1.2029702E-5,3.5708543E-2,-1.259123E-2,-1.8401633E-3,2.004799E-2,1.1612616E-2,2.0682413E-2,6.453786E-2,2.8269267E-2,5.1644485E-2,1.9386528E-2,2.3823595E-2,-1.274992E-1,-1.761962E-2,1.3704369E-2,-1.5234763E-2,-9.0171024E-2,-1.3068826E-1,5.071433E-3,2.859417E-3,4.000583E-2,-1.3393894E-1,5.588113E-2,5.5168938E-2,-1.5325143E-2,4.8364913E-3,-1.2123697E-2,1.1393931E-3,-1.5532295E-2,4.905218E-3,-2.2871831E-2,-1.14737265E-2,7.623834E-4,6.8987696E-3,-1.5590447E-2,1.6842242E-3,1.1803514E-2,4.166895E-3],"categories":[],"categories_nodes":[],"categories_segments":[],"categories_sizes":[],"default_left":[0,0,0,0,0,0,0,0,0,0,0,0,0,0,0,0,0,0,0,0,0,0,0,0,0,0,0,0,0,0,0,0,0,0,0,0,0,0,0,0,0,0,0,0,0,0,0,0,0,0,0,0,0,0,0,0,0],"id":13,"left_children":[1,3,5,7,9,11,13,15,17,19,21,23,25,27,29,31,-1,33,35,-1,37,-1,-1,-1,-1,39,41,-1,-1,-1,-1,43,-1,-1,45,47,49,-1,-1,51,53,-1,55,-1,-1,-1,-1,-1,-1,-1,-1,-1,-1,-1,-1,-1,-1],"loss_changes":[1.5390705E1,1.4212503E0,3.8449159E0,4.0032673E-1,1.5540387E-1,5.330384E-1,3.6032343E-1,1.663847E-1,4.0495825E-1,1.7661735E-2,1.14017114E-1,8.436763E-2,2.5563812E-1,1.8703341E-1,5.5885315E-4,1.20817184E-1,0E0,6.412054E-2,6.368303E-2,0E0,3.0208975E-3,0E0,0E0,0E0,0E0,5.59569E-1,2.2256823E0,0E0,0E0,0E0,0E0,4.9800718E-1,0E0,0E0,8.758558E-2,5.772598E-1,2.850628E-1,0E0,0E0,1.5493917E-1,7.163438E-2,0E0,4.0188324E-1,0E0,0E0,0E0,0E0,0E0,0E0,0E0,0E0,0E0,0E0,0E0,0E0,0E0,0E0],"parents":[2147483647,0,0,1,1,2,2,3,3,4,4,5,5,6,6,7,7,8,8,9,9,10,10,11,11,12,12,13,13,14,14,15,15,17,17,18,18,20,20,25,25,26,26,31,31,34,34,35,35,36,36,39,39,40,40,42,42],"right_children":[2,4,6,8,10,12,14,16,18,20,22,24,26,28,30,32,-1,34,36,-1,38,-1,-1,-1,-1,40,42,-1,-1,-1,-1,44,-1,-1,46,48,50,-1,-1,52,54,-1,56,-1,-1,-1,-1,-1,-1,-1,-1,-1,-1,-1,-1,-1,-1],"split_conditions":[1E0,1E0,5E-1,1.6E1,2.2E1,3E0,1.5E1,7.1653134E-1,2E1,8E0,2.9E1,2E0,1.6E1,8E0,2.9E1,1.4E1,-2.6410317E-2,1.7E1,2.6E1,-1.2029702E-5,1.5E1,-1.259123E-2,-1.8401633E-3,2.004799E-2,1.1612616E-2,1.2E1,1.8E1,2.8269267E-2,5.1644485E-2,1.9386528E-2,2.3823595E-2,1.3E1,-1.761962E-2,1.3704369E-2,1.9E1,2.5E1,3E1,5.071433E-3,2.859417E-3,7E0,1.4E1,5.588113E-2,2.4E1,-1.5325143E-2,4.8364913E-3,-1.2123697E-2,1.1393931E-3,-1.5532295E-2,4.905218E-3,-2.2871831E-2,-1.14737265E-2,7.623834E-4,6.8987696E-3,-1.5590447E-2,1.6842242E-3,1.1803514E-2,4.166895E-3],"split_indices":[2,0,0,4,4,4,4,6,4,4,4,4,4,4,4,4,0,4,4,0,4,0,0,0,0,4,4,0,0,0,0,4,0,0,4,4,4,0,0,4,4,0,4,0,0,0,0,0,0,0,0,0,0,0,0,0,0],"split_type":[0,0,0,0,0,0,0,0,0,0,0,0,0,0,0,0,0,0,0,0,0,0,0,0,0,0,0,0,0,0,0,0,0,0,0,0,0,0,0,0,0,0,0,0,0,0,0,0,0,0,0,0,0,0,0,0,0],"sum_hessian":[1.5174834E3,6.614465E2,8.56037E2,5.5458185E2,1.0686459E2,7.339199E2,1.2211702E2,2.6311584E2,2.9146603E2,6.136009E1,4.5504505E1,6.3147156E1,6.7077277E2,2.6727444E1,9.538957E1,2.4656151E2,1.6554323E1,3.1580194E1,2.5988583E2,2.0479542E1,4.0880547E1,1.3559949E1,3.194456E1,2.2064348E1,4.108281E1,1.8449045E2,4.8628235E2,1.9890299E1,6.837144E0,4.6720657E1,4.866892E1,1.0732568E2,1.3923582E2,2.0405655E0,2.9539629E1,6.1800365E1,1.9808548E2,1.1177111E1,2.9703434E1,1.6465443E2,1.983601E1,7.955045E0,4.783273E2,9.3729256E1,1.3596434E1,5.2174377E0,2.4322191E1,4.2020496E1,1.9779867E1,2.5854246E1,1.7223123E2,7.836206E1,8.629237E1,1.7284115E1,2.5518966E0,8.3189644E1,3.9513766E2],"tree_param":{"num_deleted":"0","num_feature":"7","num_nodes":"57","size_leaf_vector":"1"}},{"base_weights":[6.4730825E-9,-1.0875553E-1,8.305178E-2,-1.289355E-1,-4.742287E-3,5.6206305E-2,2.4459776E-1,-1.5927395E-1,-1.00626186E-1,2.8523633E-2,-4.9632177E-2,1.3660103E-1,4.6736535E-2,3.4396306E-1,2.1372195E-2,-1.5193038E-1,-2.5520464E-2,5.0478052E-2,-1.1791613E-1,2.131809E-5,4.2230096E-2,-1.2603155E-2,-1.4082063E-3,1.941794E-2,1.103377E-2,-4.6410705E-3,5.22671E-2,2.6929691E-2,5.038547E-2,-1.2076782E-1,-1.6639204E-1,-8.6710565E-3,6.789691E-2,-8.649999E-2,-1.2714005E-1,6.547756E-3,3.166812E-3,-2.4213117E-2,1.7463568E-3,2.0907504E-2,4.4937372E-2,-1.5952734E-2,1.3503073E-3,-2.843346E-2,-1.5541888E-2,2.9983814E-3,7.354637E-3,-1.415716E-2,3.1453574E-3,-2.250996E-2,-1.1213245E-2,9.1228785E-4,-6.476593E-3,-2.2678713E-3,5.5576954E-3],"categories":[],"categories_nodes":[],"categories_segments":[],"categories_sizes":[],"default_left":[0,0,0,0,0,0,0,0,0,0,0,0,0,0,0,0,0,0,0,0,0,0,0,0,0,0,0,0,0,0,0,0,0,0,0,0,0,0,0,0,0,0,0,0,0,0,0,0,0,0,0,0,0,0,0],"id":14,"left_children":[1,3,5,7,9,11,13,15,17,19,21,23,25,27,-1,29,-1,31,33,-1,35,-1,-1,-1,-1,37,39,-1,-1,41,43,-1,45,47,49,-1,-1,51,-1,-1,53,-1,-1,-1,-1,-1,-1,-1,-1,-1,-1,-1,-1,-1,-1],"loss_changes":[1.3606107E1,1.3684616E0,3.6903906E0,4.531107E-1,1.6123222E-1,5.522027E-1,2.9897976E-1,1.4576435E-1,7.5127435E-1,2.4089877E-2,1.2293722E-1,9.470701E-2,1.871866E-1,1.8834686E-1,0E0,9.067631E-2,0E0,7.7557474E-2,6.326985E-2,0E0,8.199863E-3,0E0,0E0,0E0,0E0,2.848213E-2,6.7338765E-1,0E0,0E0,4.2660272E-1,1.6966057E-1,0E0,3.6150515E-3,4.0263522E-1,2.6289463E-1,0E0,0E0,4.7660384E-2,0E0,0E0,4.1045976E-1,0E0,0E0,0E0,0E0,0E0,0E0,0E0,0E0,0E0,0E0,0E0,0E0,0E0,0E0],"parents":[2147483647,0,0,1,1,2,2,3,3,4,4,5,5,6,6,7,7,8,8,9,9,10,10,11,11,12,12,13,13,15,15,17,17,18,18,20,20,25,25,26,26,29,29,30,30,32,32,33,33,34,34,37,37,40,40],"right_children":[2,4,6,8,10,12,14,16,18,20,22,24,26,28,-1,30,-1,32,34,-1,36,-1,-1,-1,-1,38,40,-1,-1,42,44,-1,46,48,50,-1,-1,52,-1,-1,54,-1,-1,-1,-1,-1,-1,-1,-1,-1,-1,-1,-1,-1,-1],"split_conditions":[1E0,1E0,5E-1,1.6E1,2.2E1,4E0,1.5E1,7.1653134E-1,2E1,8E0,2.9E1,2E0,7E0,8E0,2.1372195E-2,1.2E1,-2.5520464E-2,1.8E1,2.6E1,2.131809E-5,1.5E1,-1.2603155E-2,-1.4082063E-3,1.941794E-2,1.103377E-2,6E0,9E0,2.6929691E-2,5.038547E-2,1.1E1,1.3E1,-8.6710565E-3,1.9E1,2.5E1,3E1,6.547756E-3,3.166812E-3,5E0,1.7463568E-3,2.0907504E-2,1.4E1,-1.5952734E-2,1.3503073E-3,-2.843346E-2,-1.5541888E-2,2.9983814E-3,7.354637E-3,-1.415716E-2,3.1453574E-3,-2.250996E-2,-1.1213245E-2,9.1228785E-4,-6.476593E-3,-2.2678713E-3,5.5576954E-3],"split_indices":[2,0,0,4,4,4,4,6,4,4,4,4,4,4,0,4,0,4,4,0,4,0,0,0,0,4,4,0,0,4,4,0,4,4,4,0,0,4,0,0,4,0,0,0,0,0,0,0,0,0,0,0,0,0,0],"split_type":[0,0,0,0,0,0,0,0,0,0,0,0,0,0,0,0,0,0,0,0,0,0,0,0,0,0,0,0,0,0,0,0,0,0,0,0,0,0,0,0,0,0,0,0,0,0,0,0,0,0,0,0,0,0,0],"sum_hessian":[1.5043767E3,6.5125494E2,8.531218E2,5.452328E2,1.0602213E2,7.3270917E2,1.2041263E2,2.609512E2,2.842816E2,6.1104713E1,4.4917423E1,7.579695E1,6.5691223E2,2.6141907E1,9.427072E1,2.4479565E2,1.6155544E1,2.899165E1,2.5528995E2,2.0264437E1,4.0840275E1,1.3455516E1,3.1461908E1,2.1740555E1,5.40564E1,6.3857006E1,5.9305524E2,1.9650002E1,6.491905E0,8.055768E1,1.6423796E2,2.8181665E0,2.6173483E1,6.029756E1,1.9499239E2,1.1134124E1,2.9706152E1,3.381813E1,3.0038874E1,2.5254335E1,5.678009E2,6.2366467E1,1.8191217E1,1.1859288E1,1.5237868E2,4.212322E0,2.196116E1,4.096915E1,1.9328411E1,2.4044827E1,1.7094756E2,1.8985964E1,1.4832167E1,7.704394E1,4.9075696E2],"tree_param":{"num_deleted":"0","num_feature":"7","num_nodes":"55","size_leaf_vector":"1"}},{"base_weights":[3.9082373E-9,-1.05567254E-1,8.07272E-2,-1.2488791E-1,-6.856054E-3,5.487316E-2,2.3598616E-1,-1.5275581E-1,-9.896335E-2,2.3163948E-2,-4.771036E-2,1.3764858E-1,4.6923365E-2,3.3286455E-1,2.0619528E-1,-1.455975E-1,-2.4687795E-2,4.4457663E-2,-1.1557906E-1,-9.6783333E-4,3.9309792E-2,-1.2467678E-2,-1.1902859E-3,1.8455181E-2,1.0875942E-2,6.448449E-2,3.4894906E-2,2.6054898E-2,4.9167357E-2,1.825866E-2,2.2461146E-2,-1.179514E-1,-1.65538E-2,-6.9738515E-3,5.823972E-2,-6.6283226E-2,-1.22621715E-1,5.702923E-3,3.1023936E-3,2.941663E-2,1.9491048E-1,1.1946863E-2,3.8529124E-2,-1.3635225E-2,2.7273886E-4,1.9509116E-3,6.4310506E-3,-1.290637E-2,-4.88674E-4,-3.7346657E-2,-1.1205069E-2,5.2065863E-3,-1.7621128E-2,2.7788047E-2,9.944937E-3,3.957407E-3,-8.608202E-3,9.1145905E-3,3.1444416E-3],"categories":[],"categories_nodes":[],"categories_segments":[],"categories_sizes":[],"default_left":[0,0,0,0,0,0,0,0,0,0,0,0,0,0,0,0,0,0,0,0,0,0,0,0,0,0,0,0,0,0,0,0,0,0,0,0,0,0,0,0,0,0,0,0,0,0,0,0,0,0,0,0,0,0,0,0,0,0,0],"id":15,"left_children":[1,3,5,7,9,11,13,15,17,19,21,23,25,27,29,31,-1,33,35,-1,37,-1,-1,-1,-1,39,41,-1,-1,-1,-1,43,-1,-1,45,47,49,-1,-1,51,53,55,57,-1,-1,-1,-1,-1,-1,-1,-1,-1,-1,-1,-1,-1,-1,-1,-1],"loss_changes":[1.2670594E1,1.2278733E0,3.3689618E0,3.7410927E-1,1.3174465E-1,4.6966982E-1,2.7759933E-1,1.3775253E-1,6.770294E-1,3.3296265E-2,1.2376025E-1,6.513536E-2,1.3751519E-1,1.7722607E-1,2.336502E-5,1.13895416E-1,0E0,5.1269673E-2,7.969046E-2,0E0,4.369721E-3,0E0,0E0,0E0,0E0,1.2190907E0,3.247121E-2,0E0,0E0,0E0,0E0,2.3329878E-1,0E0,0E0,5.166605E-3,1.2963997E-1,5.4193425E-1,0E0,0E0,9.975795E-1,4.2040038E-1,1.5353788E-1,1.2403977E-1,0E0,0E0,0E0,0E0,0E0,0E0,0E0,0E0,0E0,0E0,0E0,0E0,0E0,0E0,0E0,0E0],"parents":[2147483647,0,0,1,1,2,2,3,3,4,4,5,5,6,6,7,7,8,8,9,9,10,10,11,11,12,12,13,13,14,14,15,15,17,17,18,18,20,20,25,25,26,26,31,31,34,34,35,35,36,36,39,39,40,40,41,41,42,42],"right_children":[2,4,6,8,10,12,14,16,18,20,22,24,26,28,30,32,-1,34,36,-1,38,-1,-1,-1,-1,40,42,-1,-1,-1,-1,44,-1,-1,46,48,50,-1,-1,52,54,56,58,-1,-1,-1,-1,-1,-1,-1,-1,-1,-1,-1,-1,-1,-1,-1,-1],"split_conditions":[1E0,1E0,5E-1,1.6E1,2.2E1,3E0,1.5E1,7.1653134E-1,2E1,8E0,2.9E1,2E0,2.4E1,8E0,2.9E1,1.4E1,-2.4687795E-2,1.8E1,2.4E1,-9.6783333E-4,1.5E1,-1.2467678E-2,-1.1902859E-3,1.8455181E-2,1.0875942E-2,2.1E1,2.7E1,2.6054898E-2,4.9167357E-2,1.825866E-2,2.2461146E-2,1.3E1,-1.65538E-2,-6.9738515E-3,1.9E1,2.3E1,2.5E1,5.702923E-3,3.1023936E-3,1.9E1,2.3E1,2.6E1,3E1,-1.3635225E-2,2.7273886E-4,1.9509116E-3,6.4310506E-3,-1.290637E-2,-4.88674E-4,-3.7346657E-2,-1.1205069E-2,5.2065863E-3,-1.7621128E-2,2.7788047E-2,9.944937E-3,3.957407E-3,-8.608202E-3,9.1145905E-3,3.1444416E-3],"split_indices":[2,0,0,4,4,4,4,6,4,4,4,4,4,4,4,4,0,4,4,0,4,0,0,0,0,4,4,0,0,0,0,4,0,0,4,4,4,0,0,4,4,4,4,0,0,0,0,0,0,0,0,0,0,0,0,0,0,0,0],"split_type":[0,0,0,0,0,0,0,0,0,0,0,0,0,0,0,0,0,0,0,0,0,0,0,0,0,0,0,0,0,0,0,0,0,0,0,0,0,0,0,0,0,0,0,0,0,0,0,0,0,0,0,0,0,0,0,0,0,0,0],"sum_hessian":[1.484784E3,6.4326984E2,8.4151416E2,5.377511E2,1.0551874E2,7.2254755E2,1.1896663E2,2.5680426E2,2.8094687E2,6.1074104E1,4.444463E1,6.1883663E1,6.606639E2,2.5586676E1,9.337996E1,2.410207E2,1.5783548E1,2.8995157E1,2.519517E2,2.0261248E1,4.081286E1,1.3323841E1,3.1120789E1,2.153388E1,4.034978E1,2.6679364E2,3.9387027E2,1.9395393E1,6.1912823E0,4.5703995E1,4.767596E1,1.0389409E2,1.3712662E2,2.6852725E0,2.6309883E1,3.2797035E1,2.1915466E2,1.1129512E1,2.9683346E1,2.1122638E2,5.5567253E1,5.4434505E1,3.3943576E2,9.003575E1,1.3858335E1,4.1360693E0,2.2173815E1,1.5670827E1,1.712621E1,7.4738917E0,2.1168077E2,1.9094159E2,2.0284786E1,2.8706278E1,2.6860975E1,4.2931534E1,1.1502972E1,3.8872433E1,3.0056332E2],"tree_param":{"num_deleted":"0","num_feature":"7","num_nodes":"59","size_leaf_vector":"1"}},{"base_weights":[1.050967E-9,-1.04900174E-1,8.097439E-2,-1.2371096E-1,-7.887764E-3,5.6270625E-2,2.2857963E-1,-1.9034857E-1,-1.1616704E-1,2.0742005E-2,-4.6459284E-2,1.3334338E-1,4.8809294E-2,3.2564858E-1,1.991838E-1,-1.6483788E-1,-2.372623E-2,-1.0155535E-1,-1.5272142E-2,-1.7406142E-4,3.1629018E-3,-1.1554736E-2,-1.4592925E-3,1.7993633E-2,1.0483443E-2,6.4832315E-2,2.9845673E-3,2.5627581E-2,4.8028424E-2,1.7485859E-1,2.1847397E-2,-1.0960368E-1,-2.2900706E-2,-6.748656E-2,-1.2149152E-1,2.4961647E-2,1.0348268E-1,1.9250194E-2,1.4108278E-2,-1.4010804E-2,-6.955442E-3,-1.0674254E-2,-3.9783753E-3,-3.9657447E-2,-1.105619E-2,5.234827E-3,-1.1848991E-2,5.213369E-2,8.208452E-3],"categories":[],"categories_nodes":[],"categories_segments":[],"categories_sizes":[],"default_left":[0,0,0,0,0,0,0,0,0,0,0,0,0,0,0,0,0,0,0,0,0,0,0,0,0,0,0,0,0,0,0,0,0,0,0,0,0,0,0,0,0,0,0,0,0,0,0,0,0],"id":16,"left_children":[1,3,5,7,9,11,13,15,17,19,21,23,25,27,29,31,-1,33,-1,-1,-1,-1,-1,-1,-1,35,-1,-1,-1,37,-1,39,-1,41,43,45,47,-1,-1,-1,-1,-1,-1,-1,-1,-1,-1,-1,-1],"loss_changes":[1.2496162E1,1.1685638E0,3.014567E0,2.4770737E-1,1.17084585E-1,4.0325117E-1,2.7385283E-1,2.4341345E-2,2.4338627E-1,1.4997344E-2,9.762169E-2,6.3910246E-2,1.9594431E-1,1.5601492E-1,5.7599545E-3,1.0823238E-1,0E0,2.2903061E-1,0E0,0E0,0E0,0E0,0E0,0E0,0E0,5.4005384E-1,0E0,0E0,0E0,5.1903725E-4,0E0,1.7296255E-2,0E0,1.3841933E-1,6.14861E-1,6.923279E-1,1.5530798E0,0E0,0E0,0E0,0E0,0E0,0E0,0E0,0E0,0E0,0E0,0E0,0E0],"parents":[2147483647,0,0,1,1,2,2,3,3,4,4,5,5,6,6,7,7,8,8,9,9,10,10,11,11,12,12,13,13,14,14,15,15,17,17,25,25,29,29,31,31,33,33,34,34,35,35,36,36],"right_children":[2,4,6,8,10,12,14,16,18,20,22,24,26,28,30,32,-1,34,-1,-1,-1,-1,-1,-1,-1,36,-1,-1,-1,38,-1,40,-1,42,44,46,48,-1,-1,-1,-1,-1,-1,-1,-1,-1,-1,-1,-1],"split_conditions":[1E0,1E0,5E-1,9E0,2.2E1,3E0,1.5E1,7.1653134E-1,5E-1,8E0,2.9E1,2E0,3E1,8E0,2.9E1,6E0,-2.372623E-2,2.4E1,-1.5272142E-2,-1.7406142E-4,3.1629018E-3,-1.1554736E-2,-1.4592925E-3,1.7993633E-2,1.0483443E-2,1.6E1,2.9845673E-3,2.5627581E-2,4.8028424E-2,2.2E1,2.1847397E-2,2E0,-2.2900706E-2,1.3E1,2.5E1,1.1E1,1.8E1,1.9250194E-2,1.4108278E-2,-1.4010804E-2,-6.955442E-3,-1.0674254E-2,-3.9783753E-3,-3.9657447E-2,-1.105619E-2,5.234827E-3,-1.1848991E-2,5.213369E-2,8.208452E-3],"split_indices":[2,0,0,4,4,4,4,6,0,4,4,4,4,4,4,4,0,4,0,0,0,0,0,0,0,4,0,0,0,4,0,4,0,4,4,4,4,0,0,0,0,0,0,0,0,0,0,0,0],"split_type":[0,0,0,0,0,0,0,0,0,0,0,0,0,0,0,0,0,0,0,0,0,0,0,0,0,0,0,0,0,0,0,0,0,0,0,0,0,0,0,0,0,0,0,0,0,0,0,0,0],"sum_hessian":[1.4691357E3,6.3988556E2,8.292502E2,5.357315E2,1.0415403E2,7.115446E2,1.1770557E2,5.2017204E1,4.8371432E2,6.0046597E1,4.4107433E1,6.131478E1,6.5022986E2,2.5017235E1,9.268833E1,3.6618492E1,1.539871E1,3.4827744E2,1.3543689E2,1.9864605E1,4.018199E1,1.3093653E1,3.101378E1,2.1259026E1,4.0055756E1,3.5112952E2,2.991003E2,1.910405E1,5.913185E0,4.5445465E1,4.7242867E1,2.1134672E1,1.5483821E1,1.30187E2,2.1809044E2,1.7364642E2,1.774831E2,2.6764948E1,1.8680515E1,1.05787525E1,1.055592E1,5.2681744E1,7.750525E1,6.9857144E0,2.1110472E2,1.463429E2,2.730353E1,7.507926E0,1.6997517E2],"tree_param":{"num_deleted":"0","num_feature":"7","num_nodes":"49","size_leaf_vector":"1"}},{"base_weights":[1.2630562E-9,-1.020549E-1,7.874813E-2,-1.20589234E-1,-6.3273795E-3,5.480414E-2,2.2262728E-1,-1.4431982E-1,-9.860663E-2,2.3815943E-2,-4.684937E-2,1.292603E-1,4.761505E-2,3.1623903E-1,1.9453142E-2,-1.8883906E-1,-1.3205262E-1,-6.981034E-3,-1.0985702E-1,3.3776538E-4,3.3501852E-3,-1.1900755E-2,-1.3393025E-3,1.7468585E-2,1.0155611E-2,4.3454766E-3,5.3261835E-2,2.4924632E-2,4.688284E-2,-1.664122E-1,-2.2938764E-2,1.5088329E-3,-1.4150372E-1,1.3459183E-2,-2.0319035E-2,-7.751425E-2,-1.2163426E-1,6.925246E-3,-1.0355335E-2,9.108643E-2,3.492959E-2,-1.2031759E-2,-2.1971472E-2,-2.6446423E-2,-1.3146015E-2,-1.0840135E-2,1.0773364E-4,-1.2468814E-2,-1.4999926E-3,-3.071699E-2,-1.074114E-2,-3.1399452E-3,1.2961231E-3,5.037168E-3,1.8596273E-2,5.776005E-4,3.958275E-3],"categories":[],"categories_nodes":[],"categories_segments":[],"categories_sizes":[],"default_left":[0,0,0,0,0,0,0,0,0,0,0,0,0,0,0,0,0,0,0,0,0,0,0,0,0,0,0,0,0,0,0,0,0,0,0,0,0,0,0,0,0,0,0,0,0,0,0,0,0,0,0,0,0,0,0,0,0],"id":17,"left_children":[1,3,5,7,9,11,13,15,17,19,21,23,25,27,-1,29,31,33,35,-1,-1,-1,-1,-1,-1,37,39,-1,-1,41,-1,-1,43,-1,45,47,49,-1,51,53,55,-1,-1,-1,-1,-1,-1,-1,-1,-1,-1,-1,-1,-1,-1,-1,-1],"loss_changes":[1.1741245E1,1.1282225E0,2.8287435E0,2.6383877E-1,1.2848078E-1,3.7298822E-1,2.4706936E-1,1.1387491E-1,2.8773117E-1,1.185498E-2,1.065982E-1,6.0016155E-2,1.5798247E-1,1.4368176E-1,0E0,9.644389E-3,2.8386903E-1,6.2545255E-2,8.549285E-2,0E0,0E0,0E0,0E0,0E0,0E0,7.308095E-2,3.9392996E-1,0E0,0E0,6.5698266E-2,0E0,0E0,2.0044589E-1,0E0,5.6309093E-2,2.0242989E-1,4.4442844E-1,0E0,3.117413E-2,7.104088E-1,5.2319437E-2,0E0,0E0,0E0,0E0,0E0,0E0,0E0,0E0,0E0,0E0,0E0,0E0,0E0,0E0,0E0,0E0],"parents":[2147483647,0,0,1,1,2,2,3,3,4,4,5,5,6,6,7,7,8,8,9,9,10,10,11,11,12,12,13,13,15,15,16,16,17,17,18,18,25,25,26,26,29,29,32,32,34,34,35,35,36,36,38,38,39,39,40,40],"right_children":[2,4,6,8,10,12,14,16,18,20,22,24,26,28,-1,30,32,34,36,-1,-1,-1,-1,-1,-1,38,40,-1,-1,42,-1,-1,44,-1,46,48,50,-1,52,54,56,-1,-1,-1,-1,-1,-1,-1,-1,-1,-1,-1,-1,-1,-1,-1,-1],"split_conditions":[1E0,1E0,5E-1,1.6E1,2.2E1,3E0,1.5E1,9E0,2E1,8E0,2.9E1,2E0,7E0,8E0,1.9453142E-2,7.1653134E-1,1E1,1.7E1,2.7E1,3.3776538E-4,3.3501852E-3,-1.1900755E-2,-1.3393025E-3,1.7468585E-2,1.0155611E-2,4E0,2.4E1,2.4924632E-2,4.688284E-2,6E0,-2.2938764E-2,1.5088329E-3,1.1E1,1.3459183E-2,1.9E1,2.5E1,3E1,6.925246E-3,6E0,2.1E1,2.7E1,-1.2031759E-2,-2.1971472E-2,-2.6446423E-2,-1.3146015E-2,-1.0840135E-2,1.0773364E-4,-1.2468814E-2,-1.4999926E-3,-3.071699E-2,-1.074114E-2,-3.1399452E-3,1.2961231E-3,5.037168E-3,1.8596273E-2,5.776005E-4,3.958275E-3],"split_indices":[2,0,0,4,4,4,4,4,4,4,4,4,4,4,0,6,4,4,4,0,0,0,0,0,0,4,4,0,0,4,0,0,4,0,4,4,4,0,4,4,4,0,0,0,0,0,0,0,0,0,0,0,0,0,0,0,0],"split_type":[0,0,0,0,0,0,0,0,0,0,0,0,0,0,0,0,0,0,0,0,0,0,0,0,0,0,0,0,0,0,0,0,0,0,0,0,0,0,0,0,0,0,0,0,0,0,0,0,0,0,0,0,0,0,0,0,0],"sum_hessian":[1.4589657E3,6.3531854E2,8.236472E2,5.320464E2,1.0327213E2,7.0731805E2,1.16329124E2,2.5317479E2,2.7887158E2,5.9456306E1,4.381583E1,6.078615E1,6.465319E2,2.4486769E1,9.184236E1,5.1582317E1,2.0159247E2,3.0674267E1,2.4819733E2,1.955079E1,3.9905514E1,1.3069853E1,3.0745977E1,2.1018112E1,3.976804E1,7.483833E1,5.716936E2,1.8846054E1,5.6407137E0,3.649916E1,1.5083155E1,1.2131102E1,1.8946136E2,1.8583561E0,2.881591E1,6.827674E1,1.7992058E2,1.3134802E1,6.170353E1,1.8533221E2,3.8636136E2,2.1319702E1,1.517946E1,1.2393962E1,1.7706741E2,4.8370233E0,2.3978888E1,3.8345966E1,2.9930773E1,1.1343894E1,1.6857669E2,3.224999E1,2.9453543E1,1.307526E2,5.457962E1,5.3487263E1,3.3287408E2],"tree_param":{"num_deleted":"0","num_feature":"7","num_nodes":"57","size_leaf_vector":"1"}},{"base_weights":[5.2935154E-9,-9.84266E-2,7.5716704E-2,-1.1636075E-1,-6.1882474E-3,5.2490085E-2,2.1614222E-1,-1.7334773E-1,-1.0653332E-1,2.2740575E-2,-4.5409016E-2,1.2534395E-1,4.5486417E-2,3.064919E-1,1.8927923E-1,-1.5614328E-1,-2.4718432E-2,4.4377512E-4,-1.1083879E-1,-2.4643997E-4,3.4842424E-3,-1.172405E-2,-1.2087555E-3,1.6954271E-2,9.84816E-3,5.9215777E-2,2.9314368E-3,2.4139693E-2,4.5832396E-2,1.658455E-1,2.0787043E-2,-1.8433706E-1,-3.452088E-3,-1.3712092E-1,-9.499979E-2,2.1869233E-2,9.518495E-2,1.8477013E-2,1.3001685E-2,-1.6386567E-2,-2.2111157E-2,-9.048509E-3,-1.4468434E-2,3.345382E-4,-1.0622041E-2,4.585449E-3,-1.0505968E-2,5.2209865E-2,7.4560964E-3],"categories":[],"categories_nodes":[],"categories_segments":[],"categories_sizes":[],"default_left":[0,0,0,0,0,0,0,0,0,0,0,0,0,0,0,0,0,0,0,0,0,0,0,0,0,0,0,0,0,0,0,0,0,0,0,0,0,0,0,0,0,0,0,0,0,0,0,0,0],"id":18,"left_children":[1,3,5,7,9,11,13,15,17,19,21,23,25,27,29,31,-1,-1,33,-1,-1,-1,-1,-1,-1,35,-1,-1,-1,37,-1,39,-1,41,43,45,47,-1,-1,-1,-1,-1,-1,-1,-1,-1,-1,-1,-1],"loss_changes":[1.0819388E1,1.0434604E0,2.6649632E0,2.774644E-1,1.18814625E-1,3.5423064E-1,2.2385979E-1,5.8110476E-2,2.1706533E-1,1.8512236E-2,1.04853846E-1,5.6079388E-2,1.4150035E-1,1.3646579E-1,5.6655407E-3,2.1465814E-1,0E0,0E0,1.6863775E-1,0E0,0E0,0E0,0E0,0E0,0E0,4.652977E-1,0E0,0E0,0E0,6.9674253E-3,0E0,2.9867887E-3,0E0,4.399538E-2,3.0442476E-1,5.284391E-1,1.5189126E0,0E0,0E0,0E0,0E0,0E0,0E0,0E0,0E0,0E0,0E0,0E0,0E0],"parents":[2147483647,0,0,1,1,2,2,3,3,4,4,5,5,6,6,7,7,8,8,9,9,10,10,11,11,12,12,13,13,14,14,15,15,18,18,25,25,29,29,31,31,33,33,34,34,35,35,36,36],"right_children":[2,4,6,8,10,12,14,16,18,20,22,24,26,28,30,32,-1,-1,34,-1,-1,-1,-1,-1,-1,36,-1,-1,-1,38,-1,40,-1,42,44,46,48,-1,-1,-1,-1,-1,-1,-1,-1,-1,-1,-1,-1],"split_conditions":[1E0,1E0,5E-1,1.1E1,2.2E1,3E0,1.5E1,1E1,1.2E1,8E0,2.9E1,2E0,3E1,8E0,2.9E1,9E0,-2.4718432E-2,4.4377512E-4,1.8E1,-2.4643997E-4,3.4842424E-3,-1.172405E-2,-1.2087555E-3,1.6954271E-2,9.84816E-3,1.6E1,2.9314368E-3,2.4139693E-2,4.5832396E-2,2.2E1,2.0787043E-2,7.1653134E-1,-3.452088E-3,1.4E1,2E1,1.1E1,1.8E1,1.8477013E-2,1.3001685E-2,-1.6386567E-2,-2.2111157E-2,-9.048509E-3,-1.4468434E-2,3.345382E-4,-1.0622041E-2,4.585449E-3,-1.0505968E-2,5.2209865E-2,7.4560964E-3],"split_indices":[2,0,0,4,4,4,4,4,4,4,4,4,4,4,4,4,0,0,4,0,0,0,0,0,0,4,0,0,0,4,0,6,0,4,4,4,4,0,0,0,0,0,0,0,0,0,0,0,0],"split_type":[0,0,0,0,0,0,0,0,0,0,0,0,0,0,0,0,0,0,0,0,0,0,0,0,0,0,0,0,0,0,0,0,0,0,0,0,0,0,0,0,0,0,0,0,0,0,0,0,0],"sum_hessian":[1.4497723E3,6.302239E2,8.195485E2,5.274156E2,1.02808304E2,7.044115E2,1.1513705E2,7.512779E1,4.5228778E2,5.9409027E1,4.3399277E1,6.0296432E1,6.4411505E2,2.4001648E1,9.11354E1,6.3456657E1,1.1671134E1,1.6891386E1,4.353964E2,1.9529846E1,3.987918E1,1.2954542E1,3.0444735E1,2.0785261E1,3.951117E1,3.4692734E2,2.9718768E2,1.8612011E1,5.389637E0,4.470571E1,4.6429688E1,5.1096188E1,1.2360468E1,1.6084473E2,2.7455167E2,1.7099374E2,1.7593361E2,2.653363E1,1.817208E1,3.632883E1,1.476736E1,2.4254671E1,1.3659006E2,2.8188683E1,2.4636298E2,1.443544E2,2.6639345E1,6.9870725E0,1.6894653E2],"tree_param":{"num_deleted":"0","num_feature":"7","num_nodes":"49","size_leaf_vector":"1"}},{"base_weights":[3.930661E-9,-9.355398E-2,7.15746E-2,-1.1104798E-1,-3.951548E-3,4.8802573E-2,2.1007952E-1,-1.3825734E-1,-8.5931994E-2,2.5277944E-2,-4.3640673E-2,1.14961945E-1,4.099853E-2,2.9397517E-1,1.8519865E-2,-1.7365189E-1,-1.2225195E-1,4.215773E-2,-1.00792356E-1,1.9690723E-4,3.6264367E-3,-1.1587955E-2,-1.0140355E-3,1.647832E-2,9.2506725E-3,-1.1721774E-2,4.6634566E-2,2.3034306E-2,4.4732716E-2,-1.5993364E-1,-2.3152461E-2,4.3757088E-4,-1.354605E-1,-6.80046E-3,5.4997806E-2,-7.142407E-2,-1.114801E-1,-2.7234852E-2,5.411335E-4,1.6686616E-2,4.14724E-2,-1.7505802E-2,-9.261071E-3,-2.0656072E-2,-1.2892256E-2,1.910191E-3,6.03589E-3,-1.1694721E-2,-1.147545E-3,-2.9310117E-2,-9.872341E-3,-7.3440206E-5,-5.9210313E-3,-1.0043442E-3,4.9276478E-3],"categories":[],"categories_nodes":[],"categories_segments":[],"categories_sizes":[],"default_left":[0,0,0,0,0,0,0,0,0,0,0,0,0,0,0,0,0,0,0,0,0,0,0,0,0,0,0,0,0,0,0,0,0,0,0,0,0,0,0,0,0,0,0,0,0,0,0,0,0,0,0,0,0,0,0],"id":19,"left_children":[1,3,5,7,9,11,13,15,17,19,21,23,25,27,-1,29,31,33,35,-1,-1,-1,-1,-1,-1,37,39,-1,-1,41,-1,-1,43,-1,45,47,49,51,-1,-1,53,-1,-1,-1,-1,-1,-1,-1,-1,-1,-1,-1,-1,-1,-1],"loss_changes":[9.648204E0,9.785347E-1,2.5644803E0,3.451829E-1,1.20656215E-1,3.579266E-1,1.8552732E-1,1.1991501E-1,5.264399E-1,1.5288543E-2,1.0548501E-1,6.7044914E-2,1.8768513E-1,1.369431E-1,0E0,2.2676945E-2,2.9320168E-1,4.507703E-2,6.9288015E-2,0E0,0E0,0E0,0E0,0E0,0E0,1.652687E-2,3.4634876E-1,0E0,0E0,4.8981786E-2,0E0,0E0,4.702592E-2,0E0,3.990218E-3,1.8546456E-1,3.8500476E-1,2.7502613E-2,0E0,0E0,2.2044176E-1,0E0,0E0,0E0,0E0,0E0,0E0,0E0,0E0,0E0,0E0,0E0,0E0,0E0,0E0],"parents":[2147483647,0,0,1,1,2,2,3,3,4,4,5,5,6,6,7,7,8,8,9,9,10,10,11,11,12,12,13,13,15,15,16,16,17,17,18,18,25,25,26,26,29,29,32,32,34,34,35,35,36,36,37,37,40,40],"right_children":[2,4,6,8,10,12,14,16,18,20,22,24,26,28,-1,30,32,34,36,-1,-1,-1,-1,-1,-1,38,40,-1,-1,42,-1,-1,44,-1,46,48,50,52,-1,-1,54,-1,-1,-1,-1,-1,-1,-1,-1,-1,-1,-1,-1,-1,-1],"split_conditions":[1E0,1E0,5E-1,1.6E1,2.2E1,4E0,1.5E1,1.1E1,2E1,8E0,2.9E1,2E0,7E0,8E0,1.8519865E-2,1E1,1.2E1,1.8E1,2.7E1,1.9690723E-4,3.6264367E-3,-1.1587955E-2,-1.0140355E-3,1.647832E-2,9.2506725E-3,6E0,9E0,2.3034306E-2,4.4732716E-2,9E0,-2.3152461E-2,4.3757088E-4,1.3E1,-6.80046E-3,1.9E1,2.5E1,3E1,5E0,5.411335E-4,1.6686616E-2,1.4E1,-1.7505802E-2,-9.261071E-3,-2.0656072E-2,-1.2892256E-2,1.910191E-3,6.03589E-3,-1.1694721E-2,-1.147545E-3,-2.9310117E-2,-9.872341E-3,-7.3440206E-5,-5.9210313E-3,-1.0043442E-3,4.9276478E-3],"split_indices":[2,0,0,4,4,4,4,4,4,4,4,4,4,4,0,4,4,4,4,0,0,0,0,0,0,4,4,0,0,4,0,0,4,0,4,4,4,4,0,0,4,0,0,0,0,0,0,0,0,0,0,0,0,0,0],"split_type":[0,0,0,0,0,0,0,0,0,0,0,0,0,0,0,0,0,0,0,0,0,0,0,0,0,0,0,0,0,0,0,0,0,0,0,0,0,0,0,0,0,0,0,0,0,0,0,0,0,0,0,0,0,0,0],"sum_hessian":[1.4388717E3,6.235425E2,8.153292E2,5.2148773E2,1.0205473E2,7.0136755E2,1.1396167E2,2.4815005E2,2.7333768E2,5.898079E1,4.3073948E1,7.255406E1,6.288135E2,2.3593065E1,9.03686E1,7.420423E1,1.7394583E2,2.8223839E1,2.4511383E2,1.927213E1,3.9708656E1,1.2867619E1,3.020633E1,2.0572247E1,5.198181E1,6.062632E1,5.681872E2,1.8442545E1,5.1505218E0,6.3027607E1,1.1176621E1,1.649361E1,1.5745221E2,2.4977705E0,2.5726067E1,6.745114E1,1.7766269E2,3.1507984E1,2.9118336E1,2.2101357E1,5.460858E2,5.0158928E1,1.2868682E1,1.0682779E1,1.4676944E2,3.935887E0,2.179018E1,3.779783E1,2.965331E1,1.0217446E1,1.6744524E2,1.7788387E1,1.3719598E1,7.180479E1,4.7428104E2],"tree_param":{"num_deleted":"0","num_feature":"7","num_nodes":"55","size_leaf_vector":"1"}},{"base_weights":[-3.8247153E-10,-9.101238E-2,6.954979E-2,-1.0811968E-1,-3.892567E-3,4.7548424E-2,2.0376165E-1,-1.3207515E-1,-8.60923E-2,2.4119945E-2,-4.2221814E-2,1.1222757E-1,3.99399E-2,2.852032E-1,1.798054E-1,-1.2645769E-1,-2.085211E-1,3.8160585E-2,-1.0060328E-1,-3.8396113E-4,3.7427768E-3,-1.1531212E-2,-8.3386805E-4,1.5917657E-2,9.09572E-3,-9.719579E-3,4.5184314E-2,2.2361044E-2,4.3702934E-2,1.5684962E-1,1.9808384E-2,-1.0652757E-1,-1.4034539E-2,-2.3228412E-2,-1.0873251E-2,1.4511609E-2,2.6132304E-2,-6.722565E-2,-1.1289544E-1,-2.1581091E-2,3.071654E-4,1.41064245E-2,3.7696324E-2,1.7593605E-2,1.2057707E-2,-1.2490724E-2,1.1456796E-3,-9.576678E-3,5.4649264E-3,-1.1188384E-2,-9.2491804E-4,-2.7067536E-2,-1.0218059E-2,-1.7719249E-4,-4.5823706E-3,-4.1447487E-3,4.6428307E-3],"categories":[],"categories_nodes":[],"categories_segments":[],"categories_sizes":[],"default_left":[0,0,0,0,0,0,0,0,0,0,0,0,0,0,0,0,0,0,0,0,0,0,0,0,0,0,0,0,0,0,0,0,0,0,0,0,0,0,0,0,0,0,0,0,0,0,0,0,0,0,0,0,0,0,0,0,0],"id":20,"left_children":[1,3,5,7,9,11,13,15,17,19,21,23,25,27,29,31,33,35,37,-1,-1,-1,-1,-1,-1,39,41,-1,-1,43,-1,45,-1,-1,-1,-1,47,49,51,53,-1,-1,55,-1,-1,-1,-1,-1,-1,-1,-1,-1,-1,-1,-1,-1,-1],"loss_changes":[9.053972E0,9.2298746E-1,2.3844025E0,2.618847E-1,1.1132113E-1,3.389572E-1,1.709156E-1,7.9354286E-2,4.954388E-1,2.2464857E-2,1.073656E-1,5.832398E-2,1.6346759E-1,1.2838995E-1,6.991148E-3,4.9230576E-2,1.1051297E-2,3.3821017E-2,9.268975E-2,0E0,0E0,0E0,0E0,0E0,0E0,9.263309E-3,4.013052E-1,0E0,0E0,9.949088E-3,0E0,2.16928E-1,0E0,0E0,0E0,0E0,1.008326E-1,1.756908E-1,2.718432E-1,1.5082477E-2,0E0,0E0,3.6592108E-1,0E0,0E0,0E0,0E0,0E0,0E0,0E0,0E0,0E0,0E0,0E0,0E0,0E0,0E0],"parents":[2147483647,0,0,1,1,2,2,3,3,4,4,5,5,6,6,7,7,8,8,9,9,10,10,11,11,12,12,13,13,14,14,15,15,16,16,17,17,18,18,25,25,26,26,29,29,31,31,36,36,37,37,38,38,39,39,42,42],"right_children":[2,4,6,8,10,12,14,16,18,20,22,24,26,28,30,32,34,36,38,-1,-1,-1,-1,-1,-1,40,42,-1,-1,44,-1,46,-1,-1,-1,-1,48,50,52,54,-1,-1,56,-1,-1,-1,-1,-1,-1,-1,-1,-1,-1,-1,-1,-1,-1],"split_conditions":[1E0,1E0,5E-1,1.6E1,2.2E1,4E0,1.5E1,7.1653134E-1,2E1,8E0,2.9E1,2E0,7E0,8E0,2.9E1,1.4E1,4E0,1.7E1,2.7E1,-3.8396113E-4,3.7427768E-3,-1.1531212E-2,-8.3386805E-4,1.5917657E-2,9.09572E-3,6E0,1E1,2.2361044E-2,4.3702934E-2,2.2E1,1.9808384E-2,1.3E1,-1.4034539E-2,-2.3228412E-2,-1.0873251E-2,1.4511609E-2,1.9E1,2.5E1,3E1,5E0,3.071654E-4,1.41064245E-2,1.4E1,1.7593605E-2,1.2057707E-2,-1.2490724E-2,1.1456796E-3,-9.576678E-3,5.4649264E-3,-1.1188384E-2,-9.2491804E-4,-2.7067536E-2,-1.0218059E-2,-1.7719249E-4,-4.5823706E-3,-4.1447487E-3,4.6428307E-3],"split_indices":[2,0,0,4,4,4,4,6,4,4,4,4,4,4,4,4,4,4,4,0,0,0,0,0,0,4,4,0,0,4,0,4,0,0,0,0,4,4,4,4,0,0,4,0,0,0,0,0,0,0,0,0,0,0,0,0,0],"split_type":[0,0,0,0,0,0,0,0,0,0,0,0,0,0,0,0,0,0,0,0,0,0,0,0,0,0,0,0,0,0,0,0,0,0,0,0,0,0,0,0,0,0,0,0,0,0,0,0,0,0,0,0,0,0,0,0,0],"sum_hessian":[1.4283518E3,6.185773E2,8.097745E2,5.168457E2,1.01731575E2,6.968879E2,1.1288664E2,2.4519385E2,2.7165182E2,5.8990055E1,4.274152E1,7.190257E1,6.249853E2,2.3179739E1,8.970691E1,2.3088222E2,1.4311634E1,2.8237074E1,2.4341475E2,1.9252432E1,3.9737625E1,1.2776888E1,2.9964632E1,2.0397255E1,5.1505318E1,5.961702E1,5.653683E2,1.8249212E1,4.9305277E0,4.401271E1,4.5694195E1,9.837531E1,1.325069E2,1.04866495E1,3.8249848E0,1.7359983E0,2.6501076E1,6.725691E1,1.7615784E2,3.0576122E1,2.90409E1,3.9663136E1,5.2570514E2,2.6315325E1,1.7697386E1,8.506513E1,1.3310174E1,4.5771737E0,2.1923903E1,3.7466984E1,2.978993E1,9.659316E0,1.6649852E2,1.7417223E1,1.3158899E1,5.1865635E1,4.7383948E2],"tree_param":{"num_deleted":"0","num_feature":"7","num_nodes":"57","size_leaf_vector":"1"}},{"base_weights":[1.0274442E-9,-8.8532105E-2,6.781725E-2,-1.0522326E-1,-3.5019368E-3,4.6536386E-2,1.9819978E-1,-1.2926063E-1,-8.326471E-2,2.4915058E-2,-4.263768E-2,1.0892355E-1,3.92246E-2,2.7713585E-1,1.7515415E-1,-1.5985736E-1,-1.1566363E-1,3.8485035E-2,-9.746218E-2,-4.7469605E-4,3.8945328E-3,-1.1704507E-2,-7.993183E-4,1.5493293E-2,8.809287E-3,-9.386798E-3,4.431831E-2,2.1759227E-2,4.272589E-2,1.5187617E-1,1.9384973E-2,-1.4591648E-1,-2.194756E-2,5.5439083E-4,-1.2804951E-1,-6.3493936E-3,5.014883E-3,-5.9435677E-2,-1.1153615E-1,-1.750305E-2,-7.227492E-5,1.3504867E-2,3.7327483E-2,1.712979E-2,1.1517172E-2,-1.6202161E-2,-7.634478E-3,-7.8063677E-3,-1.3654524E-2,-1.0350855E-2,-3.7587303E-4,-2.7477382E-2,-1.0111002E-2,-1.9419171E-4,-3.6689625E-3,-3.3502404E-3,4.50549E-3],"categories":[],"categories_nodes":[],"categories_segments":[],"categories_sizes":[],"default_left":[0,0,0,0,0,0,0,0,0,0,0,0,0,0,0,0,0,0,0,0,0,0,0,0,0,0,0,0,0,0,0,0,0,0,0,0,0,0,0,0,0,0,0,0,0,0,0,0,0,0,0,0,0,0,0,0,0],"id":21,"left_children":[1,3,5,7,9,11,13,15,17,19,21,23,25,27,29,31,33,35,37,-1,-1,-1,-1,-1,-1,39,41,-1,-1,43,-1,45,-1,-1,47,-1,-1,49,51,53,-1,-1,55,-1,-1,-1,-1,-1,-1,-1,-1,-1,-1,-1,-1,-1,-1],"loss_changes":[8.550422E0,8.763294E-1,2.2282603E0,2.617669E-1,1.14936806E-1,3.1255782E-1,1.5673733E-1,8.3304405E-2,4.750198E-1,2.5134757E-2,1.1105028E-1,5.5644155E-2,1.5474212E-1,1.1962354E-1,9.753227E-3,2.8368354E-2,2.6045775E-1,3.7904225E-2,1.24197006E-1,0E0,0E0,0E0,0E0,0E0,0E0,4.202209E-3,3.5289514E-1,0E0,0E0,1.2159824E-2,0E0,5.696094E-2,0E0,0E0,5.602193E-2,0E0,0E0,1.6690065E-1,2.739303E-1,9.155778E-3,0E0,0E0,2.8903925E-1,0E0,0E0,0E0,0E0,0E0,0E0,0E0,0E0,0E0,0E0,0E0,0E0,0E0,0E0],"parents":[2147483647,0,0,1,1,2,2,3,3,4,4,5,5,6,6,7,7,8,8,9,9,10,10,11,11,12,12,13,13,14,14,15,15,16,16,17,17,18,18,25,25,26,26,29,29,31,31,34,34,37,37,38,38,39,39,42,42],"right_children":[2,4,6,8,10,12,14,16,18,20,22,24,26,28,30,32,34,36,38,-1,-1,-1,-1,-1,-1,40,42,-1,-1,44,-1,46,-1,-1,48,-1,-1,50,52,54,-1,-1,56,-1,-1,-1,-1,-1,-1,-1,-1,-1,-1,-1,-1,-1,-1],"split_conditions":[1E0,1E0,5E-1,1.6E1,2.2E1,4E0,1.5E1,1.1E1,2E1,8E0,2.9E1,2E0,7E0,8E0,2.9E1,1E1,1.2E1,1.8E1,2.7E1,-4.7469605E-4,3.8945328E-3,-1.1704507E-2,-7.993183E-4,1.5493293E-2,8.809287E-3,6E0,1E1,2.1759227E-2,4.272589E-2,2.2E1,1.9384973E-2,9E0,-2.194756E-2,5.5439083E-4,1.4E1,-6.3493936E-3,5.014883E-3,2.5E1,3E1,5E0,-7.227492E-5,1.3504867E-2,1.4E1,1.712979E-2,1.1517172E-2,-1.6202161E-2,-7.634478E-3,-7.8063677E-3,-1.3654524E-2,-1.0350855E-2,-3.7587303E-4,-2.7477382E-2,-1.0111002E-2,-1.9419171E-4,-3.6689625E-3,-3.3502404E-3,4.50549E-3],"split_indices":[2,0,0,4,4,4,4,4,4,4,4,4,4,4,4,4,4,4,4,0,0,0,0,0,0,4,4,0,0,4,0,4,0,0,4,0,0,4,4,4,0,0,4,0,0,0,0,0,0,0,0,0,0,0,0,0,0],"split_type":[0,0,0,0,0,0,0,0,0,0,0,0,0,0,0,0,0,0,0,0,0,0,0,0,0,0,0,0,0,0,0,0,0,0,0,0,0,0,0,0,0,0,0,0,0,0,0,0,0,0,0,0,0,0,0,0,0],"sum_hessian":[1.42212E3,6.1671857E2,8.054014E2,5.153245E2,1.01394035E2,6.9355695E2,1.1184452E2,2.4368416E2,2.7164035E2,5.8951744E1,4.2442295E1,7.129991E1,6.22257E2,2.2782887E1,8.906164E1,7.166429E1,1.7201987E2,2.8189743E1,2.434506E2,1.9142786E1,3.9808956E1,1.2727806E1,2.9714487E1,2.0214273E1,5.108564E1,5.8938614E1,5.633184E2,1.8066547E1,4.71634E0,4.3733025E1,4.5328613E1,6.087666E1,1.0787635E1,1.5999725E1,1.5602014E2,2.4371917E0,2.5752552E1,6.717459E1,1.7627602E2,2.9904596E1,2.903402E1,3.898851E1,5.243299E2,2.620173E1,1.7531294E1,4.8354298E1,1.2522362E1,2.4145481E1,1.3187466E2,3.7015053E1,3.015954E1,9.060781E0,1.6721524E2,1.7120419E1,1.2784178E1,5.124845E1,4.7308142E2],"tree_param":{"num_deleted":"0","num_feature":"7","num_nodes":"57","size_leaf_vector":"1"}},{"base_weights":[3.70391E-9,-8.581196E-2,6.561638E-2,-1.0244535E-1,-1.4693761E-3,4.494094E-2,1.9295152E-1,-1.2519705E-1,-8.179537E-2,2.742574E-2,-4.1560326E-2,1.0632126E-1,3.7781198E-2,2.6904738E-1,1.7088173E-1,-1.2012258E-1,-1.9726038E-2,-2.6390776E-2,-1.1187837E-1,-4.993528E-4,4.2630015E-3,-1.1740455E-2,-6.2419893E-4,1.5081353E-2,8.615839E-3,-1.08787455E-2,4.286215E-2,2.1145592E-2,4.1743156E-2,1.4734887E-1,1.899237E-2,-1.01446465E-1,-1.3302848E-2,3.425633E-2,-5.176156E-2,-2.6725042E-1,-1.0238319E-2,-1.8906649E-4,-1.43968E-2,7.778405E-2,2.6284479E-2,1.6712405E-2,1.1016861E-2,-1.1842132E-2,5.7404756E-4,1.373621E-2,2.2798798E-3,-9.8491525E-3,4.8814784E-4,-1.2605572E-2,-5.1298596E-2,-3.1009403E-3,-6.4687437E-4,3.548398E-3,1.7553573E-2,-1.165645E-4,3.0647833E-3],"categories":[],"categories_nodes":[],"categories_segments":[],"categories_sizes":[],"default_left":[0,0,0,0,0,0,0,0,0,0,0,0,0,0,0,0,0,0,0,0,0,0,0,0,0,0,0,0,0,0,0,0,0,0,0,0,0,0,0,0,0,0,0,0,0,0,0,0,0,0,0,0,0,0,0,0,0],"id":22,"left_children":[1,3,5,7,9,11,13,15,17,19,21,23,25,27,29,31,-1,33,35,-1,-1,-1,-1,-1,-1,37,39,-1,-1,41,-1,43,-1,45,47,49,-1,-1,51,53,55,-1,-1,-1,-1,-1,-1,-1,-1,-1,-1,-1,-1,-1,-1,-1,-1],"loss_changes":[7.9779615E0,8.611698E-1,2.1051853E0,2.3068762E-1,1.19472705E-1,3.001231E-1,1.418767E-1,6.483698E-2,4.499066E-1,2.977078E-2,1.1494157E-1,5.1365554E-2,1.540814E-1,1.1175823E-1,1.2098074E-2,4.1636705E-2,0E0,1.5090226E-1,2.3196816E-1,0E0,0E0,0E0,0E0,0E0,0E0,1.8554921E-3,3.2376325E-1,0E0,0E0,1.4282763E-2,0E0,1.7841268E-1,0E0,3.1349685E-2,1.8241121E-1,2.6505136E-1,0E0,0E0,5.4153884E-3,7.407359E-1,4.592538E-2,0E0,0E0,0E0,0E0,0E0,0E0,0E0,0E0,0E0,0E0,0E0,0E0,0E0,0E0,0E0,0E0],"parents":[2147483647,0,0,1,1,2,2,3,3,4,4,5,5,6,6,7,7,8,8,9,9,10,10,11,11,12,12,13,13,14,14,15,15,17,17,18,18,25,25,26,26,29,29,31,31,33,33,34,34,35,35,38,38,39,39,40,40],"right_children":[2,4,6,8,10,12,14,16,18,20,22,24,26,28,30,32,-1,34,36,-1,-1,-1,-1,-1,-1,38,40,-1,-1,42,-1,44,-1,46,48,50,-1,-1,52,54,56,-1,-1,-1,-1,-1,-1,-1,-1,-1,-1,-1,-1,-1,-1,-1,-1],"split_conditions":[1E0,1E0,5E-1,1.6E1,2.2E1,4E0,1.5E1,7.1653134E-1,2.7E1,8E0,2.9E1,2E0,7E0,8E0,2.9E1,1.4E1,-1.9726038E-2,2E1,3E1,-4.993528E-4,4.2630015E-3,-1.1740455E-2,-6.2419893E-4,1.5081353E-2,8.615839E-3,5E0,2.4E1,2.1145592E-2,4.1743156E-2,2.2E1,1.899237E-2,1.3E1,-1.3302848E-2,1.7E1,2.5E1,2.8E1,-1.0238319E-2,-1.8906649E-4,6E0,2.1E1,2.7E1,1.6712405E-2,1.1016861E-2,-1.1842132E-2,5.7404756E-4,1.373621E-2,2.2798798E-3,-9.8491525E-3,4.8814784E-4,-1.2605572E-2,-5.1298596E-2,-3.1009403E-3,-6.4687437E-4,3.548398E-3,1.7553573E-2,-1.165645E-4,3.0647833E-3],"split_indices":[2,0,0,4,4,4,4,6,4,4,4,4,4,4,4,4,0,4,4,0,0,0,0,0,0,4,4,0,0,4,0,4,0,4,4,4,0,0,4,4,4,0,0,0,0,0,0,0,0,0,0,0,0,0,0,0,0],"split_type":[0,0,0,0,0,0,0,0,0,0,0,0,0,0,0,0,0,0,0,0,0,0,0,0,0,0,0,0,0,0,0,0,0,0,0,0,0,0,0,0,0,0,0,0,0,0,0,0,0,0,0,0,0,0,0,0,0],"sum_hessian":[1.414876E3,6.1295557E2,8.019205E2,5.1180643E2,1.0114913E2,6.91065E2,1.1085548E2,2.4110236E2,2.7070404E2,5.8965965E1,4.2183167E1,7.074237E1,6.2032263E2,2.24068E1,8.844868E1,2.2773305E2,1.3369315E1,9.5921104E1,1.7478294E2,1.9039856E1,3.992611E1,1.2663913E1,2.9519253E1,2.0040462E1,5.0701912E1,5.8540764E1,5.6178186E2,1.7888788E1,4.5180106E0,4.3467617E1,4.498106E1,9.668326E1,1.3104979E2,2.8188417E1,6.773269E1,8.5028515E0,1.6628009E2,1.6900372E1,4.1640392E1,1.7964867E2,3.821332E2,2.6093966E1,1.737365E1,8.3374664E1,1.3308591E1,1.7201425E0,2.6468275E1,3.6709167E1,3.1023521E1,6.3609505E0,2.1419013E0,1.2511727E1,2.9128664E1,1.263404E2,5.330826E1,5.251171E1,3.296215E2],"tree_param":{"num_deleted":"0","num_feature":"7","num_nodes":"57","size_leaf_vector":"1"}},{"base_weights":[-1.4801892E-9,-8.3776325E-2,6.420857E-2,-9.994773E-2,-1.8335436E-3,4.4075243E-2,1.8874244E-1,-1.2404965E-1,-7.810097E-2,2.7569769E-2,-4.270318E-2,1.0384016E-1,3.7129745E-2,2.6177892E-1,1.6767874E-1,-1.5213262E-1,-1.1166212E-1,-1.8814895E-2,-1.10240676E-1,-6.2699226E-4,4.3402757E-3,-1.1756982E-2,-7.799698E-4,1.4719011E-2,8.420904E-3,5.1738758E-2,2.1053117E-3,2.0596398E-2,4.0852718E-2,1.443417E-1,1.8662931E-2,-1.3934027E-1,-2.0675668E-2,7.589638E-4,-1.236679E-1,3.1016072E-2,-3.9761152E-2,-2.5576088E-1,-1.0146062E-2,2.068739E-2,9.244552E-2,1.6447559E-2,1.0663494E-2,-1.2044016E-2,-1.928517E-2,-7.3955595E-3,-1.3209226E-2,-6.5980055E-3,4.220639E-3,-9.41726E-3,2.5301173E-3,-1.186544E-2,-4.9802992E-2,4.477396E-3,-1.7014433E-2,2.4961947E-2,5.1986785E-3],"categories":[],"categories_nodes":[],"categories_segments":[],"categories_sizes":[],"default_left":[0,0,0,0,0,0,0,0,0,0,0,0,0,0,0,0,0,0,0,0,0,0,0,0,0,0,0,0,0,0,0,0,0,0,0,0,0,0,0,0,0,0,0,0,0,0,0,0,0,0,0,0,0,0,0,0,0],"id":23,"left_children":[1,3,5,7,9,11,13,15,17,19,21,23,25,27,29,31,33,35,37,-1,-1,-1,-1,-1,-1,39,-1,-1,-1,41,-1,43,-1,-1,45,47,49,51,-1,53,55,-1,-1,-1,-1,-1,-1,-1,-1,-1,-1,-1,-1,-1,-1,-1,-1],"loss_changes":[7.593474E0,8.1145096E-1,1.9953833E0,2.5965357E-1,1.2371659E-1,2.8224587E-1,1.267364E-1,6.7028046E-2,5.143255E-1,3.237231E-2,1.11600086E-1,4.8199713E-2,1.4430004E-1,1.046164E-1,1.2363434E-2,2.0917654E-2,2.462554E-1,1.0193393E-1,1.983285E-1,0E0,0E0,0E0,0E0,0E0,0E0,4.071635E-1,0E0,0E0,0E0,1.6046107E-2,0E0,3.8190722E-2,0E0,0E0,5.5449724E-2,3.43856E-2,2.4439934E-1,2.5084686E-1,0E0,8.5741377E-1,8.757415E-1,0E0,0E0,0E0,0E0,0E0,0E0,0E0,0E0,0E0,0E0,0E0,0E0,0E0,0E0,0E0,0E0],"parents":[2147483647,0,0,1,1,2,2,3,3,4,4,5,5,6,6,7,7,8,8,9,9,10,10,11,11,12,12,13,13,14,14,15,15,16,16,17,17,18,18,25,25,29,29,31,31,34,34,35,35,36,36,37,37,39,39,40,40],"right_children":[2,4,6,8,10,12,14,16,18,20,22,24,26,28,30,32,34,36,38,-1,-1,-1,-1,-1,-1,40,-1,-1,-1,42,-1,44,-1,-1,46,48,50,52,-1,54,56,-1,-1,-1,-1,-1,-1,-1,-1,-1,-1,-1,-1,-1,-1,-1,-1],"split_conditions":[1E0,1E0,5E-1,1.6E1,2.2E1,4E0,1.5E1,1.1E1,2.7E1,8E0,2.9E1,2E0,3E1,8E0,2.9E1,1E1,1.2E1,2E1,3E1,-6.2699226E-4,4.3402757E-3,-1.1756982E-2,-7.799698E-4,1.4719011E-2,8.420904E-3,2.1E1,2.1053117E-3,2.0596398E-2,4.0852718E-2,2.2E1,1.8662931E-2,7.1653134E-1,-2.0675668E-2,7.589638E-4,1.4E1,1.8E1,2.5E1,2.8E1,-1.0146062E-2,1.9E1,2.3E1,1.6447559E-2,1.0663494E-2,-1.2044016E-2,-1.928517E-2,-7.3955595E-3,-1.3209226E-2,-6.5980055E-3,4.220639E-3,-9.41726E-3,2.5301173E-3,-1.186544E-2,-4.9802992E-2,4.477396E-3,-1.7014433E-2,2.4961947E-2,5.1986785E-3],"split_indices":[2,0,0,4,4,4,4,4,4,4,4,4,4,4,4,4,4,4,4,0,0,0,0,0,0,4,0,0,0,4,0,6,0,0,4,4,4,4,0,4,4,0,0,0,0,0,0,0,0,0,0,0,0,0,0,0,0],"split_type":[0,0,0,0,0,0,0,0,0,0,0,0,0,0,0,0,0,0,0,0,0,0,0,0,0,0,0,0,0,0,0,0,0,0,0,0,0,0,0,0,0,0,0,0,0,0,0,0,0,0,0,0,0,0,0,0,0],"sum_hessian":[1.4096475E3,6.11494E2,7.9815344E2,5.1052267E2,1.0097137E2,6.8824E2,1.09913445E2,2.4050883E2,2.7001382E2,5.891261E1,4.2058754E1,7.020307E1,6.180369E2,2.204531E1,8.786813E1,7.016381E1,1.7034503E2,9.547765E1,1.7453618E2,1.8970703E1,3.9941906E1,1.262029E1,2.9438465E1,1.9856853E1,5.0346214E1,3.2263583E2,2.954011E2,1.7712114E1,4.3331947E0,4.3238262E1,4.4629875E1,5.9727234E1,1.0436573E1,1.5614661E1,1.5473036E2,2.8113981E1,6.736367E1,8.33087E0,1.662053E2,1.8387958E2,1.3875626E2,2.599567E1,1.7242592E1,4.6540127E1,1.3187108E1,2.383837E1,1.30892E2,2.4015448E0,2.5712437E1,3.6440857E1,3.0922815E1,6.2714515E0,2.0594184E0,1.6395122E2,1.992837E1,2.7347414E1,1.11408844E2],"tree_param":{"num_deleted":"0","num_feature":"7","num_nodes":"57","size_leaf_vector":"1"}},{"base_weights":[-3.188679E-9,-8.413686E-2,6.4623296E-2,-1.0002484E-1,-3.5656241E-3,4.5326944E-2,1.8381588E-1,-1.5366538E-1,-9.11277E-2,2.6322348E-2,-4.4655282E-2,6.995918E-2,2.5609372E-2,2.5731212E-1,1.628684E-1,-1.345973E-1,-2.3711333E-2,-7.8005455E-2,-1.2160046E-2,-1.3805459E-4,3.9168024E-3,-1.1898913E-2,-9.961927E-4,4.9109206E-2,1.6649565E-1,1.6567027E-3,2.939875E-2,2.037443E-2,3.995377E-2,1.4004423E-1,1.814373E-2,-1.4843096E-1,-7.2333673E-3,-4.2678427E-2,-1.0524809E-1,5.9219174E-2,-8.979203E-2,2.4079965E-2,8.120251E-3,2.5675856E-3,-8.759255E-3,1.0472677E-2,2.0619559E-3,1.6062137E-2,1.0177335E-2,-1.26402825E-2,-1.8801088E-2,-5.7691527E-3,1.0354498E-3,-2.3925805E-2,-9.726725E-3,4.5787473E-3,2.3928398E-2,-1.932284E-2,-2.6736145E-3],"categories":[],"categories_nodes":[],"categories_segments":[],"categories_sizes":[],"default_left":[0,0,0,0,0,0,0,0,0,0,0,0,0,0,0,0,0,0,0,0,0,0,0,0,0,0,0,0,0,0,0,0,0,0,0,0,0,0,0,0,0,0,0,0,0,0,0,0,0,0,0,0,0,0,0],"id":24,"left_children":[1,3,5,7,9,11,13,15,17,19,21,23,25,27,29,31,-1,33,-1,-1,-1,-1,-1,35,37,39,41,-1,-1,43,-1,45,-1,47,49,51,53,-1,-1,-1,-1,-1,-1,-1,-1,-1,-1,-1,-1,-1,-1,-1,-1,-1,-1],"loss_changes":[7.6161766E0,7.7859974E-1,1.8138249E0,2.2855282E-1,1.2553762E-1,3.3002448E-1,1.2753677E-1,8.082008E-2,1.658144E-1,2.11398E-2,1.0973924E-1,6.020235E-1,3.453535E-2,9.144068E-2,1.2045622E-2,4.0929794E-2,0E0,2.9310477E-1,0E0,0E0,0E0,0E0,0E0,3.574192E-1,3.1905806E-1,1.1609024E-1,2.1536168E-1,0E0,0E0,1.832509E-2,0E0,1.8197536E-2,0E0,1.0913126E-1,1.6272283E-1,5.5577576E-1,1.0837965E-1,0E0,0E0,0E0,0E0,0E0,0E0,0E0,0E0,0E0,0E0,0E0,0E0,0E0,0E0,0E0,0E0,0E0,0E0],"parents":[2147483647,0,0,1,1,2,2,3,3,4,4,5,5,6,6,7,7,8,8,9,9,10,10,11,11,12,12,13,13,14,14,15,15,17,17,23,23,24,24,25,25,26,26,29,29,31,31,33,33,34,34,35,35,36,36],"right_children":[2,4,6,8,10,12,14,16,18,20,22,24,26,28,30,32,-1,34,-1,-1,-1,-1,-1,36,38,40,42,-1,-1,44,-1,46,-1,48,50,52,54,-1,-1,-1,-1,-1,-1,-1,-1,-1,-1,-1,-1,-1,-1,-1,-1,-1,-1],"split_conditions":[1E0,1E0,5E-1,1.1E1,2.2E1,2.4E1,1.5E1,1E1,5E-1,8E0,2.9E1,2.1E1,2.7E1,8E0,2.9E1,9E0,-2.3711333E-2,2.7E1,-1.2160046E-2,-1.3805459E-4,3.9168024E-3,-1.1898913E-2,-9.961927E-4,1.9E1,2.3E1,2.6E1,3E1,2.037443E-2,3.995377E-2,2.2E1,1.814373E-2,6E0,-7.2333673E-3,2.5E1,3E1,1.6E1,2E1,2.4079965E-2,8.120251E-3,2.5675856E-3,-8.759255E-3,1.0472677E-2,2.0619559E-3,1.6062137E-2,1.0177335E-2,-1.26402825E-2,-1.8801088E-2,-5.7691527E-3,1.0354498E-3,-2.3925805E-2,-9.726725E-3,4.5787473E-3,2.3928398E-2,-1.932284E-2,-2.6736145E-3],"split_indices":[2,0,0,4,4,4,4,4,0,4,4,4,4,4,4,4,0,4,0,0,0,0,0,4,4,4,4,0,0,4,0,4,0,4,4,4,4,0,0,0,0,0,0,0,0,0,0,0,0,0,0,0,0,0,0],"split_type":[0,0,0,0,0,0,0,0,0,0,0,0,0,0,0,0,0,0,0,0,0,0,0,0,0,0,0,0,0,0,0,0,0,0,0,0,0,0,0,0,0,0,0,0,0,0,0,0,0,0,0,0,0,0,0],"sum_hessian":[1.3987532E3,6.0750494E2,7.9124817E2,5.0723996E2,1.0026499E2,6.821876E2,1.0906057E2,6.984938E1,4.3739056E2,5.825246E1,4.201253E1,3.0216235E2,3.8002524E2,2.168679E1,8.737379E1,5.8984264E1,1.0865118E1,3.0822284E2,1.2916771E2,1.873697E1,3.9515488E1,1.25955715E1,2.9416962E1,2.4973355E2,5.2428806E1,5.2105236E1,3.2792E2,1.7520435E1,4.1663537E0,4.30277E1,4.4346085E1,4.712924E1,1.1855026E1,1.3531676E2,1.729061E2,2.3332462E2,1.640894E1,2.7045042E1,2.5383764E1,4.1617313E1,1.0487924E1,3.3087837E1,2.9483218E2,2.5903292E1,1.7124407E1,3.297222E1,1.4157015E1,1.0539314E2,2.9923607E1,8.089691E0,1.648164E2,2.1829544E2,1.502918E1,5.4327316E0,1.0976208E1],"tree_param":{"num_deleted":"0","num_feature":"7","num_nodes":"55","size_leaf_vector":"1"}},{"base_weights":[2.2170026E-9,-8.225229E-2,6.31925E-2,-9.797009E-2,-2.571326E-3,4.4466175E-2,1.7885603E-1,-1.5289907E-1,-8.887963E-2,2.9403439E-2,-4.6328794E-2,6.290589E-2,2.0280252E-3,2.5043863E-1,1.5861304E-1,-1.361188E-1,-2.2617852E-2,-7.5760506E-2,-1.1920312E-2,2.104397E-4,4.1933704E-2,-1.2217722E-2,-1.0773977E-3,4.257023E-2,8.920089E-2,1.9862022E-2,3.905817E-2,1.3707031E-1,1.7604237E-2,-1.1903498E-1,-1.8391607E-2,-4.6066232E-2,-9.8586075E-2,2.8849344E-3,4.5540608E-3,6.456565E-2,-1.2163864E-1,4.8462845E-2,7.045138E-2,1.574082E-2,9.918272E-3,-7.560262E-3,-1.4819662E-2,-5.833349E-3,-2.0586059E-4,-2.3545807E-2,-9.072158E-3,1.0130187E-2,4.316253E-3,-7.923646E-3,-1.9016152E-2,-3.8333132E-3,8.981875E-3],"categories":[],"categories_nodes":[],"categories_segments":[],"categories_sizes":[],"default_left":[0,0,0,0,0,0,0,0,0,0,0,0,0,0,0,0,0,0,0,0,0,0,0,0,0,0,0,0,0,0,0,0,0,0,0,0,0,0,0,0,0,0,0,0,0,0,0,0,0,0,0,0,0],"id":25,"left_children":[1,3,5,7,9,11,13,15,17,19,21,23,-1,25,27,29,-1,31,-1,-1,33,-1,-1,35,37,-1,-1,39,-1,41,-1,43,45,-1,-1,47,49,-1,51,-1,-1,-1,-1,-1,-1,-1,-1,-1,-1,-1,-1,-1,-1],"loss_changes":[7.229212E0,7.5656605E-1,1.6956811E0,2.384224E-1,1.4209983E-1,3.0122554E-1,1.18614435E-1,5.5628657E-2,1.6418839E-1,2.0001616E-2,1.14261486E-1,2.0174253E-1,0E0,8.48099E-2,8.877039E-3,2.6851177E-2,0E0,2.0331919E-1,0E0,0E0,5.834624E-4,0E0,0E0,7.9764277E-1,1.2019092E0,0E0,0E0,1.8162847E-2,0E0,4.808438E-2,0E0,7.284677E-2,1.6433847E-1,0E0,0E0,1.477626E-1,6.098941E-2,0E0,3.4125847E-1,0E0,0E0,0E0,0E0,0E0,0E0,0E0,0E0,0E0,0E0,0E0,0E0,0E0,0E0],"parents":[2147483647,0,0,1,1,2,2,3,3,4,4,5,5,6,6,7,7,8,8,9,9,10,10,11,11,13,13,14,14,15,15,17,17,20,20,23,23,24,24,27,27,29,29,31,31,32,32,35,35,36,36,38,38],"right_children":[2,4,6,8,10,12,14,16,18,20,22,24,-1,26,28,30,-1,32,-1,-1,34,-1,-1,36,38,-1,-1,40,-1,42,-1,44,46,-1,-1,48,50,-1,52,-1,-1,-1,-1,-1,-1,-1,-1,-1,-1,-1,-1,-1,-1],"split_conditions":[1E0,1E0,5E-1,1.1E1,2.2E1,3E1,1.5E1,1E1,5E-1,8E0,2.9E1,1.6E1,2.0280252E-3,8E0,2.9E1,7.1653134E-1,-2.2617852E-2,2.7E1,-1.1920312E-2,2.104397E-4,1.5E1,-1.2217722E-2,-1.0773977E-3,1.1E1,1.8E1,1.9862022E-2,3.905817E-2,2.2E1,1.7604237E-2,6E0,-1.8391607E-2,2.5E1,3E1,2.8849344E-3,4.5540608E-3,4E0,1.3E1,4.8462845E-2,2.1E1,1.574082E-2,9.918272E-3,-7.560262E-3,-1.4819662E-2,-5.833349E-3,-2.0586059E-4,-2.3545807E-2,-9.072158E-3,1.0130187E-2,4.316253E-3,-7.923646E-3,-1.9016152E-2,-3.8333132E-3,8.981875E-3],"split_indices":[2,0,0,4,4,4,4,4,0,4,4,4,0,4,4,6,0,4,0,0,4,0,0,4,4,0,0,4,0,4,0,4,4,0,0,4,4,0,4,0,0,0,0,0,0,0,0,0,0,0,0,0,0],"split_type":[0,0,0,0,0,0,0,0,0,0,0,0,0,0,0,0,0,0,0,0,0,0,0,0,0,0,0,0,0,0,0,0,0,0,0,0,0,0,0,0,0,0,0,0,0,0,0,0,0,0,0,0,0],"sum_hessian":[1.3888408E3,6.032892E2,7.855517E2,5.0370013E2,9.958903E1,6.7728186E2,1.0826983E2,6.927674E1,4.344234E2,5.7731266E1,4.185776E1,3.833835E2,2.9389835E2,2.136126E1,8.690857E1,5.8693935E1,1.0582806E1,3.056749E2,1.2874849E2,1.8529638E1,3.9201626E1,1.2581525E1,2.9276236E1,2.1766653E2,1.6571698E2,1.7359709E1,4.001551E0,4.2832172E1,4.40764E1,4.5810608E1,1.2883327E1,1.3416066E2,1.7151425E2,1.0415786E1,2.8785841E1,1.9248976E2,2.5176771E1,6.3770647E0,1.5933992E2,2.5818378E1,1.7013792E1,1.984567E1,2.5964935E1,1.0466065E2,2.9500006E1,7.7470546E0,1.637672E2,6.948794E1,1.2300182E2,1.688477E1,8.292001E0,2.3932772E1,1.3540715E2],"tree_param":{"num_deleted":"0","num_feature":"7","num_nodes":"53","size_leaf_vector":"1"}},{"base_weights":[3.1081915E-9,-8.057905E-2,6.1841648E-2,-9.5930554E-2,-2.7950553E-3,4.362526E-2,1.7472976E-1,-1.4590764E-1,-8.7692805E-2,3.0718029E-2,-4.8438497E-2,6.7127205E-2,2.48377E-2,2.4396387E-1,1.5526801E-1,-1.2938151E-1,-2.1883318E-2,6.128735E-4,-9.108483E-2,4.694039E-4,4.255889E-2,-1.27111925E-2,-1.1334495E-3,4.6663817E-2,1.6195844E-1,-2.6014685E-3,2.9192556E-2,1.9415215E-2,3.8106497E-2,1.3550542E-1,1.7101552E-2,-1.4633648E-1,-5.1789465E-3,-1.1196533E-1,-7.871381E-2,2.9701896E-3,4.60339E-3,5.5701055E-2,-7.9498805E-2,2.3340292E-2,7.997573E-3,1.9791469E-3,-8.705228E-3,1.0838367E-2,2.0455413E-3,1.54128615E-2,9.994618E-3,-1.2860392E-2,-1.7723983E-2,-7.217218E-3,-1.1848996E-2,-3.02837E-3,-9.25143E-3,4.243327E-3,2.1240331E-2,-1.4668574E-2,-4.0417262E-3],"categories":[],"categories_nodes":[],"categories_segments":[],"categories_sizes":[],"default_left":[0,0,0,0,0,0,0,0,0,0,0,0,0,0,0,0,0,0,0,0,0,0,0,0,0,0,0,0,0,0,0,0,0,0,0,0,0,0,0,0,0,0,0,0,0,0,0,0,0,0,0,0,0,0,0,0,0],"id":26,"left_children":[1,3,5,7,9,11,13,15,17,19,21,23,25,27,29,31,-1,-1,33,-1,35,-1,-1,37,39,41,43,-1,-1,45,-1,47,-1,49,51,-1,-1,53,55,-1,-1,-1,-1,-1,-1,-1,-1,-1,-1,-1,-1,-1,-1,-1,-1,-1,-1],"loss_changes":[6.892759E0,7.1692944E-1,1.6017237E0,1.9370842E-1,1.5449849E-1,2.9646003E-1,1.08187914E-1,5.541241E-2,1.3839531E-1,1.7762471E-2,1.233167E-1,5.733985E-1,4.5103326E-2,7.650423E-2,4.0171146E-3,7.0149064E-2,0E0,0E0,9.917879E-2,0E0,4.1709095E-4,0E0,0E0,2.8678185E-1,2.9018712E-1,1.0106499E-1,2.2285047E-1,0E0,0E0,1.3443053E-2,0E0,3.4770966E-3,0E0,3.1217217E-2,1.7491174E-1,0E0,0E0,4.7266746E-1,3.8618483E-2,0E0,0E0,0E0,0E0,0E0,0E0,0E0,0E0,0E0,0E0,0E0,0E0,0E0,0E0,0E0,0E0,0E0,0E0],"parents":[2147483647,0,0,1,1,2,2,3,3,4,4,5,5,6,6,7,7,8,8,9,9,10,10,11,11,12,12,13,13,14,14,15,15,18,18,20,20,23,23,24,24,25,25,26,26,29,29,31,31,33,33,34,34,37,37,38,38],"right_children":[2,4,6,8,10,12,14,16,18,20,22,24,26,28,30,32,-1,-1,34,-1,36,-1,-1,38,40,42,44,-1,-1,46,-1,48,-1,50,52,-1,-1,54,56,-1,-1,-1,-1,-1,-1,-1,-1,-1,-1,-1,-1,-1,-1,-1,-1,-1,-1],"split_conditions":[1E0,1E0,5E-1,1.1E1,2.2E1,2.4E1,1.5E1,1E1,1.2E1,8E0,2.9E1,2.1E1,2.7E1,8E0,2.9E1,9E0,-2.1883318E-2,6.128735E-4,1.6E1,4.694039E-4,1.5E1,-1.27111925E-2,-1.1334495E-3,1.9E1,2.3E1,2.6E1,3E1,1.9415215E-2,3.8106497E-2,2.2E1,1.7101552E-2,6E0,-5.1789465E-3,1.4E1,2.4E1,2.9701896E-3,4.60339E-3,1.4E1,2E1,2.3340292E-2,7.997573E-3,1.9791469E-3,-8.705228E-3,1.0838367E-2,2.0455413E-3,1.54128615E-2,9.994618E-3,-1.2860392E-2,-1.7723983E-2,-7.217218E-3,-1.1848996E-2,-3.02837E-3,-9.25143E-3,4.243327E-3,2.1240331E-2,-1.4668574E-2,-4.0417262E-3],"split_indices":[2,0,0,4,4,4,4,4,4,4,4,4,4,4,4,4,0,0,4,0,4,0,0,4,4,4,4,0,0,4,0,4,0,4,4,0,0,4,4,0,0,0,0,0,0,0,0,0,0,0,0,0,0,0,0,0,0],"split_type":[0,0,0,0,0,0,0,0,0,0,0,0,0,0,0,0,0,0,0,0,0,0,0,0,0,0,0,0,0,0,0,0,0,0,0,0,0,0,0,0,0,0,0,0,0,0,0,0,0,0,0,0,0,0,0,0,0],"sum_hessian":[1.3812157E3,5.9961725E2,7.815984E2,5.0058768E2,9.902961E1,6.7419257E2,1.0740581E2,6.84713E1,4.3211636E2,5.7291264E1,4.1738342E1,2.9837415E2,3.7581845E2,2.1035965E1,8.636984E1,5.808291E1,1.0388387E1,1.504949E1,4.1706686E2,1.835245E1,3.8938816E1,1.2598757E1,2.9139587E1,2.4664365E2,5.1730503E1,5.153133E1,3.242871E2,1.7202177E1,3.8337882E0,4.256146E1,4.380838E1,4.6939896E1,1.1143014E1,1.5217195E2,2.6489493E2,1.0316537E1,2.862228E1,2.3067828E2,1.5965363E1,2.6654903E1,2.50756E1,4.133627E1,1.0195061E1,3.1090078E1,2.9319702E2,2.574421E1,1.6817251E1,3.310531E1,1.3834585E1,2.3135008E1,1.2903694E2,5.9452465E1,2.0544246E2,2.1384323E2,1.683505E1,4.85889E0,1.1106472E1],"tree_param":{"num_deleted":"0","num_feature":"7","num_nodes":"57","size_leaf_vector":"1"}},{"base_weights":[1.5585111E-11,-7.865803E-2,6.046916E-2,-9.356202E-2,-3.106291E-3,4.267216E-2,1.7079744E-1,-1.4556791E-1,-8.5030444E-2,3.248262E-2,-5.1265262E-2,6.4895846E-2,2.494171E-2,2.3762436E-1,1.521176E-1,-1.3111441E-1,-2.0871172E-2,6.56194E-4,-8.831373E-2,6.7575765E-4,4.4118114E-2,-1.35023715E-2,-1.1393254E-3,3.9426487E-2,1.3180229E-1,8.956104E-4,2.8735707E-2,1.8939108E-2,3.7271347E-2,1.3332777E-1,1.6700136E-2,-1.15652844E-1,-1.7415239E-2,-1.09813124E-1,-7.560284E-2,2.8334016E-3,4.8657795E-3,6.0032204E-2,-1.18451E-1,4.662999E-2,9.9585064E-2,2.3220328E-3,-8.442561E-3,1.0638753E-2,2.0381506E-3,1.5150773E-2,9.84502E-3,-8.404342E-3,-1.3690549E-2,-7.0174686E-3,-1.16286175E-2,-3.3543166E-3,-8.754806E-3,9.887357E-3,3.7543133E-3,-7.593686E-3,-1.8769763E-2,-2.057189E-3,1.528811E-2],"categories":[],"categories_nodes":[],"categories_segments":[],"categories_sizes":[],"default_left":[0,0,0,0,0,0,0,0,0,0,0,0,0,0,0,0,0,0,0,0,0,0,0,0,0,0,0,0,0,0,0,0,0,0,0,0,0,0,0,0,0,0,0,0,0,0,0,0,0,0,0,0,0,0,0,0,0,0,0],"id":27,"left_children":[1,3,5,7,9,11,13,15,17,19,21,23,25,27,29,31,-1,-1,33,-1,35,-1,-1,37,39,41,43,-1,-1,45,-1,47,-1,49,51,-1,-1,53,55,-1,57,-1,-1,-1,-1,-1,-1,-1,-1,-1,-1,-1,-1,-1,-1,-1,-1,-1,-1],"loss_changes":[6.5420055E0,6.7284536E-1,1.5195701E0,2.0914364E-1,1.7225426E-1,2.6275408E-1,9.8272085E-2,3.556907E-2,1.3028526E-1,1.7016914E-2,1.4100969E-1,5.011096E-1,3.4169286E-2,7.109618E-2,2.0468235E-3,1.898837E-2,0E0,0E0,1.0550475E-1,0E0,1.4624745E-3,0E0,0E0,7.11828E-1,8.317758E-1,1.0122141E-1,2.0782647E-1,0E0,0E0,1.2593269E-2,0E0,1.9556165E-2,0E0,3.0974627E-2,1.3016725E-1,0E0,0E0,1.6424465E-1,6.0362697E-2,0E0,4.8730987E-1,0E0,0E0,0E0,0E0,0E0,0E0,0E0,0E0,0E0,0E0,0E0,0E0,0E0,0E0,0E0,0E0,0E0,0E0],"parents":[2147483647,0,0,1,1,2,2,3,3,4,4,5,5,6,6,7,7,8,8,9,9,10,10,11,11,12,12,13,13,14,14,15,15,18,18,20,20,23,23,24,24,25,25,26,26,29,29,31,31,33,33,34,34,37,37,38,38,40,40],"right_children":[2,4,6,8,10,12,14,16,18,20,22,24,26,28,30,32,-1,-1,34,-1,36,-1,-1,38,40,42,44,-1,-1,46,-1,48,-1,50,52,-1,-1,54,56,-1,58,-1,-1,-1,-1,-1,-1,-1,-1,-1,-1,-1,-1,-1,-1,-1,-1,-1,-1],"split_conditions":[1E0,1E0,5E-1,1.1E1,2.2E1,2.4E1,1.5E1,1E1,1.2E1,8E0,2.9E1,1.6E1,2.7E1,8E0,2.9E1,7.1653134E-1,-2.0871172E-2,6.56194E-4,1.6E1,6.7575765E-4,1.5E1,-1.35023715E-2,-1.1393254E-3,1.1E1,1.8E1,2.6E1,3E1,1.8939108E-2,3.7271347E-2,2.2E1,1.6700136E-2,6E0,-1.7415239E-2,1.4E1,2.4E1,2.8334016E-3,4.8657795E-3,4E0,1.3E1,4.662999E-2,2.1E1,2.3220328E-3,-8.442561E-3,1.0638753E-2,2.0381506E-3,1.5150773E-2,9.84502E-3,-8.404342E-3,-1.3690549E-2,-7.0174686E-3,-1.16286175E-2,-3.3543166E-3,-8.754806E-3,9.887357E-3,3.7543133E-3,-7.593686E-3,-1.8769763E-2,-2.057189E-3,1.528811E-2],"split_indices":[2,0,0,4,4,4,4,4,4,4,4,4,4,4,4,6,0,0,4,0,4,0,0,4,4,4,4,0,0,4,0,4,0,4,4,0,0,4,4,0,4,0,0,0,0,0,0,0,0,0,0,0,0,0,0,0,0,0,0],"split_type":[0,0,0,0,0,0,0,0,0,0,0,0,0,0,0,0,0,0,0,0,0,0,0,0,0,0,0,0,0,0,0,0,0,0,0,0,0,0,0,0,0,0,0,0,0,0,0,0,0,0,0,0,0,0,0,0,0,0,0],"sum_hessian":[1.3734155E3,5.9679987E2,7.766156E2,4.982687E2,9.853119E1,6.699354E2,1.06680176E2,6.795765E1,4.3031107E2,5.6847256E1,4.1683937E1,2.961168E2,3.738186E2,2.0744843E1,8.593533E1,5.780308E1,1.0154571E1,1.4856867E1,4.154542E2,1.819671E1,3.8650543E1,1.2673822E1,2.9010115E1,2.1562415E2,8.049265E1,5.1111755E1,3.2270685E2,1.705674E1,3.6881044E0,4.238491E1,4.3550426E1,4.5238274E1,1.2564805E1,1.515243E2,2.6392987E2,1.0250788E1,2.8399755E1,1.9127875E2,2.43454E1,5.887863E0,7.460479E1,4.1088573E1,1.0023181E1,3.0206318E1,2.9250055E2,2.566369E1,1.672122E1,2.0179482E1,2.5058794E1,2.293294E1,1.2859137E2,5.922032E1,2.0470956E2,6.889396E1,1.22384796E2,1.638339E1,7.9620094E0,2.3112104E1,5.1492683E1],"tree_param":{"num_deleted":"0","num_feature":"7","num_nodes":"59","size_leaf_vector":"1"}},{"base_weights":[2.4034654E-9,-7.72792E-2,5.9500474E-2,-9.13023E-2,-6.2833484E-3,4.206983E-2,1.6782144E-1,-1.3963564E-1,-8.341356E-2,3.1747006E-2,-5.7286453E-2,6.435537E-2,2.4310566E-2,2.315616E-1,1.5006743E-2,-1.2569728E-1,-2.0096285E-2,4.6570334E-4,-8.654672E-2,8.111481E-4,4.235988E-2,-1.5225502E-2,-1.1160887E-3,4.578415E-2,1.5023886E-1,7.260188E-4,2.8026938E-2,1.8525973E-2,3.6343902E-2,-1.4237806E-1,-4.731364E-3,-1.06457874E-1,-7.4750096E-2,3.0417023E-3,4.5464337E-3,9.694771E-2,2.528465E-2,2.1647543E-2,7.3942677E-3,2.5420224E-3,-9.3143685E-3,1.0425503E-2,1.999617E-3,-1.6868617E-2,-1.1736286E-2,-1.6450616E-2,-1.0128949E-2,-4.676167E-3,-8.996406E-3,1.418256E-2,7.6855696E-3,-1.6128507E-3,4.5459024E-3],"categories":[],"categories_nodes":[],"categories_segments":[],"categories_sizes":[],"default_left":[0,0,0,0,0,0,0,0,0,0,0,0,0,0,0,0,0,0,0,0,0,0,0,0,0,0,0,0,0,0,0,0,0,0,0,0,0,0,0,0,0,0,0,0,0,0,0,0,0,0,0,0,0],"id":28,"left_children":[1,3,5,7,9,11,13,15,17,19,21,23,25,27,-1,29,-1,-1,31,-1,33,-1,-1,35,37,39,41,-1,-1,43,-1,45,47,-1,-1,49,51,-1,-1,-1,-1,-1,-1,-1,-1,-1,-1,-1,-1,-1,-1,-1,-1],"loss_changes":[6.2959366E0,5.924237E-1,1.4535832E0,1.7797232E-1,1.9446144E-1,2.6269722E-1,8.621836E-2,3.3118963E-2,1.1906099E-1,1.4089223E-2,1.8569632E-1,4.6445012E-1,3.268993E-2,6.362522E-2,0E0,6.951499E-2,0E0,0E0,8.9588165E-2,0E0,8.0540776E-5,0E0,0E0,2.5389242E-1,2.472918E-1,1.22507975E-1,1.9525939E-1,0E0,0E0,1.1520088E-2,0E0,2.8984308E-2,1.0827017E-1,0E0,0E0,5.1822603E-2,1.4765163E-1,0E0,0E0,0E0,0E0,0E0,0E0,0E0,0E0,0E0,0E0,0E0,0E0,0E0,0E0,0E0,0E0],"parents":[2147483647,0,0,1,1,2,2,3,3,4,4,5,5,6,6,7,7,8,8,9,9,10,10,11,11,12,12,13,13,15,15,18,18,20,20,23,23,24,24,25,25,26,26,29,29,31,31,32,32,35,35,36,36],"right_children":[2,4,6,8,10,12,14,16,18,20,22,24,26,28,-1,30,-1,-1,32,-1,34,-1,-1,36,38,40,42,-1,-1,44,-1,46,48,-1,-1,50,52,-1,-1,-1,-1,-1,-1,-1,-1,-1,-1,-1,-1,-1,-1,-1,-1],"split_conditions":[1E0,1E0,5E-1,1.1E1,2.2E1,2.4E1,1.5E1,1E1,1.2E1,8E0,2.9E1,2.1E1,2.7E1,8E0,1.5006743E-2,9E0,-2.0096285E-2,4.6570334E-4,1.6E1,8.111481E-4,1.5E1,-1.5225502E-2,-1.1160887E-3,4E0,2.3E1,2.6E1,3E1,1.8525973E-2,3.6343902E-2,4E0,-4.731364E-3,1.3E1,2.7E1,3.0417023E-3,4.5464337E-3,2E0,7E0,2.1647543E-2,7.3942677E-3,2.5420224E-3,-9.3143685E-3,1.0425503E-2,1.999617E-3,-1.6868617E-2,-1.1736286E-2,-1.6450616E-2,-1.0128949E-2,-4.676167E-3,-8.996406E-3,1.418256E-2,7.6855696E-3,-1.6128507E-3,4.5459024E-3],"split_indices":[2,0,0,4,4,4,4,4,4,4,4,4,4,4,0,4,0,0,4,0,4,0,0,4,4,4,4,0,0,4,0,4,4,0,0,4,4,0,0,0,0,0,0,0,0,0,0,0,0,0,0,0,0],"split_type":[0,0,0,0,0,0,0,0,0,0,0,0,0,0,0,0,0,0,0,0,0,0,0,0,0,0,0,0,0,0,0,0,0,0,0,0,0,0,0,0,0,0,0,0,0,0,0,0,0,0,0,0,0],"sum_hessian":[1.3672327E3,5.9462933E2,7.7260333E2,4.9631186E2,9.831749E1,6.667074E2,1.0589593E2,6.7296074E1,4.2901578E2,5.653777E1,4.1779716E1,2.94511E2,3.7219644E2,2.0446487E1,8.544944E1,5.731845E1,9.977624E0,1.4721403E1,4.1429437E2,1.8066616E1,3.8471153E1,1.2906162E1,2.8873554E1,2.4340977E2,5.1101208E1,5.0828426E1,3.21368E2,1.6913118E1,3.5333703E0,4.658772E1,1.0730732E1,1.5114943E2,2.6314496E2,1.0164842E1,2.8306313E1,6.856155E1,1.7484824E2,2.6370419E1,2.4730791E1,4.0819324E1,1.00091E1,2.9487793E1,2.9188022E2,1.9907732E1,2.6679987E1,9.836982E0,1.4131245E2,9.41025E1,1.6904243E2,1.932904E1,4.923251E1,5.7341137E1,1.17507095E2],"tree_param":{"num_deleted":"0","num_feature":"7","num_nodes":"53","size_leaf_vector":"1"}},{"base_weights":[2.690018E-9,-7.6003276E-2,5.85101E-2,-8.974952E-2,-6.13555E-3,4.1510332E-2,1.6457482E-1,-1.0993749E-1,-7.1725026E-2,2.7368264E-2,-5.1268782E-2,6.3898005E-2,2.3633536E-2,2.2629817E-1,1.4746455E-2,-1.3380449E-1,-9.9649996E-2,1.3337624E-2,-7.34654E-2,4.9502513E-4,3.7558936E-3,-1.3595295E-2,-1.0588272E-3,4.623011E-2,1.4606136E-1,-9.480081E-4,2.7521232E-2,1.815823E-2,3.5545047E-2,-1.2033171E-1,-1.9277196E-2,5.4752995E-4,-1.0977645E-1,-4.6732314E-2,-8.52114E-2,9.426272E-2,2.7108677E-2,2.0834917E-2,7.4106134E-3,2.8164731E-2,-1.0972044E-2,1.02615535E-1,1.9759217E-3,-1.0511175E-2,-1.6368054E-2,-6.518782E-3,-1.1720841E-2,-7.033673E-3,